~o
<STREAMINFO> 1 39
<VECSIZE> 39<NULLD><MFCC_E_D_A_Z><DIAGC>
~s "silst"
<NUMMIXES> 16
<MIXTURE> 1 1.120912e-01
<MEAN> 39
 -2.907067e+00 4.705469e-01 5.035342e+00 5.227068e+00 3.306615e+00 5.485637e+00 1.823957e+00 2.821834e+00 1.389142e+00 2.842227e+00 2.396364e+00 9.326837e-01 2.872286e-01 -3.125281e+00 -1.671504e+00 -1.337111e+00 1.138578e+00 1.217404e+00 2.525145e+00 2.851941e+00 3.364264e+00 2.368536e+00 2.209291e+00 1.117205e+00 3.416671e-01 -1.218464e-01 2.493965e-01 4.643126e-01 -3.589143e-01 -4.134545e-01 -3.374929e-01 -4.839691e-01 -1.893457e-01 -6.404430e-02 -4.428929e-02 -2.937424e-01 -1.568768e-01 -1.867844e-01 3.438392e-02
<VARIANCE> 39
 1.971307e+01 3.531042e+01 1.453687e+01 2.611669e+01 2.012969e+01 2.740500e+01 3.058870e+01 3.401614e+01 3.400290e+01 2.988498e+01 3.276473e+01 2.657188e+01 2.530593e-02 1.604906e+00 2.191239e+00 2.237964e+00 2.309432e+00 2.508050e+00 2.965982e+00 2.817156e+00 2.908025e+00 2.899825e+00 2.965048e+00 3.348980e+00 3.673282e+00 1.846823e-03 3.271984e-01 4.551720e-01 3.069054e-01 4.690649e-01 3.695840e-01 4.877592e-01 5.475808e-01 6.844628e-01 7.035329e-01 6.131490e-01 5.287621e-01 4.485705e-01 3.440882e-04
<GCONST> 9.602415e+01
<MIXTURE> 2 3.361271e-02
<MEAN> 39
 5.718230e-01 -1.373483e+00 -1.102526e+00 -3.474221e+00 -1.157207e+00 3.389912e+00 7.903446e+00 8.922485e+00 8.748480e+00 7.101435e+00 2.258899e+00 -6.384777e-01 5.320032e-01 3.093876e-01 3.879026e-03 -1.827528e+00 -1.318451e+00 -1.533989e+00 -1.471656e+00 -7.296543e-01 -8.321939e-01 2.902061e-01 1.311114e+00 1.462622e+00 1.578835e+00 1.029886e-01 -2.953286e-01 1.292621e-01 4.241502e-01 4.777606e-01 3.262999e-01 -4.913723e-02 -6.542448e-01 -7.229119e-01 -7.247092e-01 -4.793878e-01 -3.123086e-02 3.354739e-01 -1.004319e-02
<VARIANCE> 39
 2.820802e+01 1.027944e+02 5.420842e+01 5.892566e+01 3.603666e+01 7.667928e+01 5.959159e+01 4.072220e+01 9.262486e+01 1.376903e+02 1.566934e+02 9.341093e+01 4.391168e-02 3.182130e+00 8.191751e+00 5.537403e+00 5.221129e+00 5.867810e+00 9.822115e+00 7.407854e+00 6.091819e+00 9.479912e+00 1.093877e+01 1.310600e+01 8.390911e+00 1.487359e-02 3.292018e-01 7.383609e-01 5.885884e-01 7.491511e-01 6.187218e-01 1.060359e+00 1.048609e+00 6.793485e-01 1.572409e+00 2.312024e+00 2.561292e+00 1.746050e+00 5.603455e-04
<GCONST> 1.312862e+02
<MIXTURE> 3 8.208767e-02
<MEAN> 39
 -2.414703e+00 -2.981879e+00 1.874215e+00 2.651672e+00 3.637511e+00 4.500154e+00 3.644865e+00 4.021838e+00 4.044569e+00 3.547818e+00 3.001534e+00 1.988652e+00 2.009752e-01 -1.623516e+00 -9.385357e-01 -6.617733e-01 1.580666e-01 5.241097e-02 5.228915e-01 6.407455e-01 8.724818e-01 7.477334e-01 6.478924e-01 3.904574e-01 1.385984e-02 -6.902703e-02 3.943005e-01 4.798514e-01 2.761502e-02 -1.864702e-02 -1.822248e-01 -2.962068e-01 -3.220532e-01 -3.413419e-01 -3.577930e-01 -3.032742e-01 -2.745836e-01 -1.601925e-01 3.672018e-02
<VARIANCE> 39
 1.887801e+01 4.938324e+01 4.019559e+01 4.428666e+01 4.357745e+01 4.498490e+01 4.793957e+01 4.991283e+01 4.527708e+01 4.371849e+01 4.532243e+01 3.631878e+01 3.328203e-02 1.837310e+00 3.098124e+00 3.359981e+00 3.203587e+00 3.033237e+00 3.382473e+00 3.764166e+00 4.180982e+00 3.821877e+00 3.404748e+00 3.756064e+00 3.390561e+00 4.492774e-03 3.689682e-01 5.837350e-01 5.019354e-01 6.159165e-01 6.855196e-01 6.540746e-01 7.363645e-01 7.828095e-01 7.621961e-01 7.532603e-01 7.699909e-01 6.990021e-01 7.958282e-04
<GCONST> 1.094861e+02
<MIXTURE> 4 2.918033e-02
<MEAN> 39
 5.248514e+00 4.061095e+00 4.804961e+00 1.591136e+00 8.474736e-01 -1.451751e-01 -2.134818e+00 -3.401740e+00 -8.707390e-01 -1.952455e+00 -2.493012e+00 -7.250305e-01 5.413595e-01 2.788544e+00 1.838964e+00 -6.881981e-01 -1.716550e+00 -1.310090e+00 -1.281116e+00 -1.595985e+00 -9.387751e-01 -1.148208e+00 -2.527600e-01 -3.331015e-01 -4.829133e-01 1.758572e-01 -7.610815e-01 -4.901407e-01 -5.143853e-01 -2.610261e-01 1.786573e-02 1.721497e-01 2.844534e-01 5.292408e-01 4.597202e-01 3.759036e-01 4.544808e-01 3.365057e-01 -2.508266e-02
<VARIANCE> 39
 2.964864e+01 3.762476e+01 4.608698e+01 3.701074e+01 3.607663e+01 3.125351e+01 3.622789e+01 3.687570e+01 3.254457e+01 2.868104e+01 2.928344e+01 1.847257e+01 2.350548e-02 3.153970e+00 2.689146e+00 5.858787e+00 3.770256e+00 3.463544e+00 3.303951e+00 3.863174e+00 3.648242e+00 4.350490e+00 3.559275e+00 3.624315e+00 3.248517e+00 3.096339e-03 3.642868e-01 2.108277e-01 4.305385e-01 6.289343e-01 3.991311e-01 4.835112e-01 5.620579e-01 5.097270e-01 5.336600e-01 4.601785e-01 4.846304e-01 3.498612e-01 3.512840e-04
<GCONST> 1.015863e+02
<MIXTURE> 5 8.208433e-02
<MEAN> 39
 -2.414659e+00 -2.981896e+00 1.874176e+00 2.651568e+00 3.637392e+00 4.500095e+00 3.644814e+00 4.021726e+00 4.044496e+00 3.547817e+00 3.001642e+00 1.988791e+00 2.009815e-01 -1.623516e+00 -9.385257e-01 -6.617620e-01 1.580864e-01 5.242356e-02 5.228988e-01 6.407388e-01 8.724744e-01 7.477226e-01 6.478872e-01 3.904440e-01 1.384009e-02 -6.902660e-02 3.942909e-01 4.798468e-01 2.761491e-02 -1.863809e-02 -1.822137e-01 -2.961927e-01 -3.220391e-01 -3.413232e-01 -3.577836e-01 -3.032701e-01 -2.745990e-01 -1.602134e-01 3.671973e-02
<VARIANCE> 39
 1.887806e+01 4.938366e+01 4.019674e+01 4.428778e+01 4.357900e+01 4.498698e+01 4.794145e+01 4.991391e+01 4.527766e+01 4.371954e+01 4.532433e+01 3.631991e+01 3.328246e-02 1.837333e+00 3.098151e+00 3.360041e+00 3.203623e+00 3.033300e+00 3.382550e+00 3.764234e+00 4.181037e+00 3.821918e+00 3.404793e+00 3.756156e+00 3.390631e+00 4.492763e-03 3.689731e-01 5.837454e-01 5.019482e-01 6.159393e-01 6.855496e-01 6.541093e-01 7.363909e-01 7.828292e-01 7.622084e-01 7.532750e-01 7.700295e-01 6.990324e-01 7.958455e-04
<GCONST> 1.094871e+02
<MIXTURE> 6 1.142252e-01
<MEAN> 39
 -1.895085e+00 -1.058224e+00 1.844068e+00 2.446024e+00 3.205758e+00 3.664365e+00 1.732323e+00 2.824071e+00 3.120445e+00 1.263161e+00 1.646271e+00 9.518332e-01 1.973569e-02 -3.396122e-01 1.312466e-02 -2.424203e-03 7.199569e-02 -7.349955e-02 2.062802e-02 7.943787e-03 6.749480e-02 -1.377174e-02 -1.147928e-02 -7.917805e-03 -5.098694e-02 -1.574949e-02 1.436668e-01 1.549433e-01 8.118393e-02 8.309634e-02 4.527729e-03 -5.238009e-03 -3.353370e-02 -2.394191e-02 -2.938066e-02 1.451211e-02 -1.581283e-02 1.954522e-02 1.848829e-02
<VARIANCE> 39
 1.061549e+01 4.195400e+01 2.228642e+01 2.526783e+01 2.376728e+01 2.689183e+01 2.577098e+01 3.196601e+01 2.340857e+01 2.599641e+01 2.522971e+01 1.853228e+01 2.292326e-02 9.213800e-01 1.275383e+00 1.097552e+00 1.372078e+00 1.579527e+00 1.714831e+00 1.664879e+00 1.983744e+00 1.927179e+00 1.900724e+00 1.688817e+00 1.513437e+00 2.546345e-03 1.743245e-01 2.585418e-01 2.209405e-01 2.526154e-01 3.046067e-01 3.561498e-01 3.419071e-01 3.928261e-01 3.951232e-01 3.686790e-01 3.332081e-01 3.104087e-01 4.992242e-04
<GCONST> 8.308048e+01
<MIXTURE> 7 2.918057e-02
<MEAN> 39
 5.248386e+00 4.061116e+00 4.805093e+00 1.591297e+00 8.474695e-01 -1.451869e-01 -2.134799e+00 -3.401764e+00 -8.707011e-01 -1.952519e+00 -2.493056e+00 -7.250520e-01 5.413582e-01 2.788538e+00 1.838996e+00 -6.881427e-01 -1.716526e+00 -1.310120e+00 -1.281129e+00 -1.596001e+00 -9.387870e-01 -1.148207e+00 -2.527909e-01 -3.331164e-01 -4.829288e-01 1.758579e-01 -7.610724e-01 -4.901405e-01 -5.143939e-01 -2.610466e-01 1.786040e-02 1.721492e-01 2.844470e-01 5.292383e-01 4.597189e-01 3.759102e-01 4.544858e-01 3.365103e-01 -2.508245e-02
<VARIANCE> 39
 2.964832e+01 3.762485e+01 4.608564e+01 3.701023e+01 3.607696e+01 3.125362e+01 3.622735e+01 3.687572e+01 3.254453e+01 2.868085e+01 2.928330e+01 1.847248e+01 2.350556e-02 3.153939e+00 2.689157e+00 5.858712e+00 3.770248e+00 3.463589e+00 3.303959e+00 3.863176e+00 3.648249e+00 4.350511e+00 3.559273e+00 3.624351e+00 3.248542e+00 3.096270e-03 3.642827e-01 2.108276e-01 4.305278e-01 6.289195e-01 3.991303e-01 4.835064e-01 5.620503e-01 5.097247e-01 5.336601e-01 4.601743e-01 4.846276e-01 3.498594e-01 3.512825e-04
<GCONST> 1.015861e+02
<MIXTURE> 8 2.207399e-02
<MEAN> 39
 5.834594e+00 5.440496e+00 1.810975e+00 -3.614504e+00 -3.696942e+00 -2.951384e+00 -4.039434e+00 7.444830e-01 3.064020e+00 5.517607e+00 6.764331e+00 6.365852e+00 5.822247e-01 1.872085e+00 8.264530e-01 -2.010991e+00 -2.530260e+00 -2.024485e+00 -2.481537e+00 -1.783265e+00 -1.796172e+00 -1.701725e+00 -1.183679e+00 -7.027525e-01 -3.748739e-01 1.622797e-01 -9.123751e-01 -3.845430e-01 7.124531e-02 5.234683e-01 8.158030e-01 8.164619e-01 8.155316e-01 5.271990e-01 -8.634634e-02 -4.344419e-01 -7.332515e-01 -7.445016e-01 -3.138880e-02
<VARIANCE> 39
 3.443922e+01 5.072291e+01 6.064530e+01 4.062778e+01 3.199916e+01 4.063123e+01 4.705009e+01 3.963442e+01 4.731837e+01 4.514631e+01 4.289354e+01 4.117665e+01 2.626215e-02 3.635807e+00 3.717792e+00 4.606750e+00 3.411774e+00 3.370645e+00 4.188160e+00 4.325191e+00 3.219299e+00 3.979831e+00 4.416002e+00 4.278489e+00 5.021038e+00 4.432066e-03 3.548461e-01 3.045905e-01 7.293289e-01 6.532876e-01 5.174052e-01 5.847502e-01 7.879908e-01 7.697623e-01 7.792808e-01 7.677278e-01 6.003187e-01 7.128286e-01 3.976323e-04
<GCONST> 1.104576e+02
<MIXTURE> 9 8.208433e-02
<MEAN> 39
 -2.414659e+00 -2.981896e+00 1.874176e+00 2.651568e+00 3.637392e+00 4.500095e+00 3.644814e+00 4.021726e+00 4.044496e+00 3.547817e+00 3.001642e+00 1.988791e+00 2.009815e-01 -1.623516e+00 -9.385257e-01 -6.617620e-01 1.580864e-01 5.242356e-02 5.228988e-01 6.407388e-01 8.724744e-01 7.477226e-01 6.478872e-01 3.904440e-01 1.384009e-02 -6.902660e-02 3.942909e-01 4.798468e-01 2.761491e-02 -1.863809e-02 -1.822137e-01 -2.961927e-01 -3.220391e-01 -3.413232e-01 -3.577836e-01 -3.032701e-01 -2.745990e-01 -1.602134e-01 3.671973e-02
<VARIANCE> 39
 1.887806e+01 4.938366e+01 4.019674e+01 4.428778e+01 4.357900e+01 4.498698e+01 4.794145e+01 4.991391e+01 4.527766e+01 4.371954e+01 4.532433e+01 3.631991e+01 3.328246e-02 1.837333e+00 3.098151e+00 3.360041e+00 3.203623e+00 3.033300e+00 3.382550e+00 3.764234e+00 4.181037e+00 3.821918e+00 3.404793e+00 3.756156e+00 3.390631e+00 4.492763e-03 3.689731e-01 5.837454e-01 5.019482e-01 6.159393e-01 6.855496e-01 6.541093e-01 7.363909e-01 7.828292e-01 7.622084e-01 7.532750e-01 7.700295e-01 6.990324e-01 7.958455e-04
<GCONST> 1.094871e+02
<MIXTURE> 10 1.142136e-01
<MEAN> 39
 -1.895056e+00 -1.058859e+00 1.843755e+00 2.445944e+00 3.205940e+00 3.664148e+00 1.732384e+00 2.823782e+00 3.120243e+00 1.263122e+00 1.646202e+00 9.518991e-01 1.976134e-02 -3.397159e-01 1.305411e-02 -2.459899e-03 7.198767e-02 -7.353193e-02 2.058574e-02 7.910803e-03 6.746234e-02 -1.377760e-02 -1.147898e-02 -7.896645e-03 -5.098966e-02 -1.575388e-02 1.437104e-01 1.549986e-01 8.120775e-02 8.310737e-02 4.521140e-03 -5.239458e-03 -3.354148e-02 -2.394447e-02 -2.937470e-02 1.450941e-02 -1.582903e-02 1.953663e-02 1.849156e-02
<VARIANCE> 39
 1.061662e+01 4.195614e+01 2.228916e+01 2.527061e+01 2.376990e+01 2.689412e+01 2.577272e+01 3.196783e+01 2.341138e+01 2.599859e+01 2.523156e+01 1.853330e+01 2.292646e-02 9.215930e-01 1.275640e+00 1.097733e+00 1.372273e+00 1.579706e+00 1.715008e+00 1.665029e+00 1.983962e+00 1.927402e+00 1.900859e+00 1.688954e+00 1.513527e+00 2.547139e-03 1.743493e-01 2.585737e-01 2.209718e-01 2.526504e-01 3.046386e-01 3.561809e-01 3.419337e-01 3.928602e-01 3.951598e-01 3.687059e-01 3.332329e-01 3.104311e-01 4.992920e-04
<GCONST> 8.308481e+01
<MIXTURE> 11 1.141975e-01
<MEAN> 39
 -1.895032e+00 -1.059538e+00 1.843418e+00 2.445846e+00 3.206116e+00 3.663893e+00 1.732422e+00 2.823458e+00 3.120045e+00 1.263062e+00 1.646121e+00 9.519491e-01 1.978705e-02 -3.398140e-01 1.298850e-02 -2.488539e-03 7.198144e-02 -7.356253e-02 2.054470e-02 7.877884e-03 6.742830e-02 -1.378456e-02 -1.148430e-02 -7.882494e-03 -5.099592e-02 -1.575834e-02 1.437557e-01 1.550557e-01 8.123424e-02 8.312024e-02 4.516676e-03 -5.236430e-03 -3.354563e-02 -2.394454e-02 -2.936891e-02 1.450702e-02 -1.584555e-02 1.952916e-02 1.849490e-02
<VARIANCE> 39
 1.061763e+01 4.195808e+01 2.229171e+01 2.527307e+01 2.377207e+01 2.689613e+01 2.577435e+01 3.196970e+01 2.341427e+01 2.600076e+01 2.523322e+01 1.853427e+01 2.292899e-02 9.217751e-01 1.275863e+00 1.097885e+00 1.372446e+00 1.579867e+00 1.715165e+00 1.665154e+00 1.984154e+00 1.927598e+00 1.900986e+00 1.689077e+00 1.513613e+00 2.547843e-03 1.743704e-01 2.586019e-01 2.210001e-01 2.526822e-01 3.046654e-01 3.562089e-01 3.419582e-01 3.928955e-01 3.951958e-01 3.687333e-01 3.332555e-01 3.104516e-01 4.993542e-04
<GCONST> 8.308874e+01
<MIXTURE> 12 9.394898e-02
<MEAN> 39
 -2.898240e+00 -2.683911e+00 2.830228e+00 4.357152e+00 5.343686e+00 5.325459e+00 5.331667e+00 4.330866e+00 3.532474e+00 4.354149e+00 3.766009e+00 2.357017e+00 2.300272e-01 1.414317e+00 8.216673e-01 -3.603776e-01 -7.369677e-01 -1.205536e+00 -1.174293e+00 -1.065115e+00 -1.102487e+00 -8.511528e-01 1.100129e-01 -3.143433e-01 -9.585657e-02 1.313009e-01 4.747994e-01 1.635554e-01 -2.957272e-01 -5.080717e-01 -5.649393e-01 -3.854586e-01 -4.613716e-01 -3.107372e-01 -4.118701e-01 -3.080467e-01 -2.917320e-01 -9.667227e-02 3.234446e-02
<VARIANCE> 39
 2.195827e+01 6.445668e+01 4.737898e+01 4.473145e+01 3.922109e+01 6.167480e+01 4.075407e+01 5.039697e+01 4.607368e+01 4.500151e+01 4.551689e+01 3.575180e+01 5.989492e-02 2.544370e+00 7.609448e+00 5.017100e+00 5.446691e+00 3.908776e+00 5.445887e+00 5.859321e+00 5.232060e+00 5.285766e+00 5.009970e+00 4.941320e+00 4.014585e+00 6.756739e-03 4.383158e-01 7.955887e-01 6.408024e-01 6.983126e-01 6.278077e-01 1.050159e+00 8.362622e-01 9.096019e-01 9.271123e-01 9.478832e-01 8.790839e-01 7.696415e-01 1.165167e-03
<GCONST> 1.184225e+02
<MIXTURE> 13 2.917975e-02
<MEAN> 39
 5.248834e+00 4.061033e+00 4.804423e+00 1.590628e+00 8.474616e-01 -1.451544e-01 -2.134717e+00 -3.401524e+00 -8.707516e-01 -1.952171e+00 -2.492821e+00 -7.249421e-01 5.413643e-01 2.788612e+00 1.838891e+00 -6.883874e-01 -1.716633e+00 -1.310015e+00 -1.281084e+00 -1.595950e+00 -9.387410e-01 -1.148245e+00 -2.526690e-01 -3.330484e-01 -4.828767e-01 1.758568e-01 -7.610926e-01 -4.901422e-01 -5.143433e-01 -2.609559e-01 1.788170e-02 1.721518e-01 2.844507e-01 5.292252e-01 4.597038e-01 3.758733e-01 4.544520e-01 3.364865e-01 -2.508315e-02
<VARIANCE> 39
 2.964956e+01 3.762517e+01 4.609027e+01 3.701202e+01 3.607596e+01 3.125316e+01 3.622864e+01 3.687546e+01 3.254433e+01 2.868122e+01 2.928374e+01 1.847252e+01 2.350537e-02 3.154016e+00 2.689169e+00 5.859038e+00 3.770225e+00 3.463387e+00 3.303915e+00 3.863185e+00 3.648214e+00 4.350366e+00 3.559372e+00 3.624227e+00 3.248480e+00 3.096429e-03 3.642867e-01 2.108289e-01 4.305622e-01 6.289515e-01 3.991249e-01 4.835117e-01 5.620583e-01 5.097266e-01 5.336559e-01 4.601829e-01 4.846277e-01 3.498596e-01 3.512887e-04
<GCONST> 1.015865e+02
<MIXTURE> 14 2.207372e-02
<MEAN> 39
 5.834373e+00 5.440673e+00 1.811745e+00 -3.613876e+00 -3.696831e+00 -2.951320e+00 -4.039563e+00 7.441539e-01 3.063814e+00 5.517173e+00 6.763948e+00 6.365572e+00 5.822212e-01 1.872137e+00 8.265571e-01 -2.010942e+00 -2.530305e+00 -2.024605e+00 -2.481653e+00 -1.783337e+00 -1.796216e+00 -1.701689e+00 -1.183693e+00 -7.027232e-01 -3.749193e-01 1.622849e-01 -9.123562e-01 -3.845624e-01 7.115451e-02 5.233767e-01 8.157825e-01 8.164483e-01 8.155379e-01 5.272366e-01 -8.630911e-02 -4.343753e-01 -7.331911e-01 -7.444603e-01 -3.138816e-02
<VARIANCE> 39
 3.443718e+01 5.072146e+01 6.064376e+01 4.062746e+01 3.200010e+01 4.062929e+01 4.704955e+01 3.963603e+01 4.731857e+01 4.514593e+01 4.289204e+01 4.117374e+01 2.626173e-02 3.635662e+00 3.717869e+00 4.606713e+00 3.411754e+00 3.370598e+00 4.188159e+00 4.325356e+00 3.219388e+00 3.979786e+00 4.415868e+00 4.278335e+00 5.021006e+00 4.431723e-03 3.548332e-01 3.045817e-01 7.293069e-01 6.532905e-01 5.173942e-01 5.847332e-01 7.879786e-01 7.698156e-01 7.792864e-01 7.677048e-01 6.002995e-01 7.127741e-01 3.976220e-04
<GCONST> 1.104569e+02
<MIXTURE> 15 2.207450e-02
<MEAN> 39
 5.834263e+00 5.440534e+00 1.811496e+00 -3.614016e+00 -3.696864e+00 -2.951229e+00 -4.039364e+00 7.443867e-01 3.064088e+00 5.517448e+00 6.764094e+00 6.365652e+00 5.822181e-01 1.872110e+00 8.265563e-01 -2.010957e+00 -2.530286e+00 -2.024606e+00 -2.481640e+00 -1.783314e+00 -1.796204e+00 -1.701660e+00 -1.183649e+00 -7.026814e-01 -3.748370e-01 1.622836e-01 -9.123412e-01 -3.845524e-01 7.118775e-02 5.234045e-01 8.157831e-01 8.164452e-01 8.155171e-01 5.272028e-01 -8.634487e-02 -4.344124e-01 -7.332102e-01 -7.444649e-01 -3.138776e-02
<VARIANCE> 39
 3.443752e+01 5.072249e+01 6.064431e+01 4.062743e+01 3.199994e+01 4.062997e+01 4.705001e+01 3.963649e+01 4.731940e+01 4.514693e+01 4.289281e+01 4.117467e+01 2.626219e-02 3.635691e+00 3.717915e+00 4.606736e+00 3.411757e+00 3.370646e+00 4.188184e+00 4.325315e+00 3.219418e+00 3.979835e+00 4.415985e+00 4.278440e+00 5.021126e+00 4.431924e-03 3.548279e-01 3.045908e-01 7.293205e-01 6.532867e-01 5.173966e-01 5.847422e-01 7.879821e-01 7.698131e-01 7.792985e-01 7.677239e-01 6.003138e-01 7.127891e-01 3.976286e-04
<GCONST> 1.104574e+02
<MIXTURE> 16 1.768067e-02
<MEAN> 39
 1.452840e+00 1.215957e+01 -1.202155e+00 -5.832752e-01 -4.289612e+00 -2.152588e+00 -4.738922e-01 2.728685e+00 1.356913e+00 1.621317e+00 1.247195e+00 2.454258e+00 6.645458e-01 2.991582e-01 3.903115e+00 -1.333441e+00 -2.111696e+00 -2.714178e+00 -2.865005e+00 -1.690692e+00 -1.608409e+00 -1.584163e+00 -1.404608e+00 -1.101500e+00 -1.531587e-01 1.927868e-01 -5.129245e-01 -1.265370e+00 2.274034e-01 1.321951e-01 4.398801e-01 3.604451e-01 -1.421953e-02 -8.659269e-02 -4.332251e-02 -1.592865e-01 -9.610036e-02 -2.935494e-01 -3.855352e-02
<VARIANCE> 39
 9.325697e+00 5.127293e+01 1.015795e+01 1.786321e+01 2.847599e+01 2.645840e+01 4.902459e+01 3.900906e+01 2.196402e+01 3.504322e+01 2.576552e+01 3.604072e+01 1.443009e-02 1.296904e+00 4.646175e+00 3.177526e+00 2.153180e+00 2.878564e+00 3.427023e+00 3.092905e+00 4.220252e+00 1.857357e+00 3.029670e+00 6.372117e+00 5.421700e+00 3.558843e-03 1.536482e-01 3.263348e-01 1.989031e-01 3.708099e-01 4.428984e-01 4.855301e-01 6.034974e-01 5.837888e-01 4.329244e-01 3.739155e-01 4.940061e-01 4.721173e-01 3.802403e-04
<GCONST> 9.534737e+01
~h "#i"
<BEGINHMM>
<NUMSTATES> 13
<STATE> 2
<NUMMIXES> 6
<MIXTURE> 1 6.746760e-02
<MEAN> 39
 -2.852678e+00 9.216475e+00 -5.624473e+00 -3.167099e+00 -6.253846e+00 -4.478695e+00 1.449157e+00 6.313605e-01 5.298939e+00 5.653823e+00 6.841949e+00 8.902750e+00 8.625919e-01 -1.058893e+00 -2.649617e-01 -2.775096e-01 -3.024272e-02 -4.185052e-01 -2.530484e-01 -8.757269e-01 -8.666177e-01 4.273707e-01 1.352462e+00 2.035558e+00 2.282318e+00 3.617852e-02 3.784671e-01 -7.672302e-02 4.111247e-01 3.215842e-01 3.451569e-01 4.092629e-01 2.690816e-01 3.703215e-01 -1.205274e-02 -1.083668e-01 -4.799739e-01 -7.639014e-01 -2.111517e-02
<VARIANCE> 39
 1.808713e+01 3.181912e+01 2.132956e+01 1.777535e+01 2.122931e+01 1.558787e+01 2.227052e+01 3.294657e+01 7.947204e+01 8.155315e+01 4.384033e+01 6.938969e+01 6.167876e-03 7.961163e-01 6.265801e-01 8.541735e-01 9.479248e-01 1.142598e+00 1.032903e+00 1.724658e+00 1.800586e+00 4.221177e+00 4.851608e+00 5.801748e+00 5.037863e+00 3.474059e-04 1.413111e-01 2.038001e-01 3.206907e-01 2.891069e-01 3.932434e-01 4.032173e-01 3.398103e-01 3.628537e-01 6.115599e-01 8.846365e-01 5.653743e-01 6.124780e-01 3.251894e-04
<GCONST> 8.733441e+01
<MIXTURE> 2 1.387826e-01
<MEAN> 39
 6.088980e-01 1.116020e+01 -3.372273e+00 -3.217370e+00 -5.855487e+00 -4.970868e+00 -3.612421e+00 2.579160e-01 -2.653091e+00 -1.916920e+00 -2.464188e+00 -2.352694e+00 7.439229e-01 -3.294641e-01 8.148027e-01 -1.880541e-02 3.449588e-01 -4.056461e-01 1.216983e-01 -4.564301e-01 -3.790914e-01 -5.467210e-01 -1.997196e-01 -1.662732e-01 4.358679e-01 2.416302e-02 -7.870622e-02 -3.133703e-01 2.409226e-01 8.745980e-02 3.112523e-01 1.817040e-01 1.261145e-01 9.375202e-02 3.102115e-01 2.024219e-01 3.717159e-01 3.689559e-01 -6.051358e-03
<VARIANCE> 39
 1.189448e+01 3.622383e+01 2.269254e+01 2.351698e+01 2.425462e+01 2.586970e+01 4.825948e+01 3.713882e+01 3.686081e+01 4.231092e+01 6.051062e+01 5.552315e+01 1.875113e-02 1.140393e+00 1.842069e+00 1.107072e+00 1.659628e+00 1.573127e+00 2.179328e+00 2.618148e+00 3.266243e+00 3.139874e+00 2.627357e+00 4.460505e+00 5.242534e+00 1.128258e-03 1.177226e-01 3.335467e-01 2.176023e-01 3.892226e-01 3.320583e-01 5.060531e-01 5.269524e-01 4.129906e-01 4.254416e-01 5.754835e-01 5.930680e-01 6.192853e-01 4.468916e-04
<GCONST> 9.351828e+01
<MIXTURE> 3 2.593544e-01
<MEAN> 39
 -4.549330e-01 1.102797e+01 1.793579e+00 -4.815374e+00 -2.943896e+00 -5.454350e+00 -5.993193e+00 8.454427e-01 2.125864e+00 -1.522200e+00 3.939744e+00 -3.488843e-01 7.785897e-01 -3.794474e-01 2.052149e+00 -8.239619e-01 1.217723e+00 -3.298546e-01 -5.989493e-01 -1.185093e+00 -4.605553e-01 -5.681931e-01 -9.733729e-01 9.249005e-01 -7.932494e-01 3.338900e-03 1.523494e-01 -5.362042e-01 1.971997e-02 1.205691e-01 -3.854669e-01 3.717892e-01 2.685843e-01 5.446932e-02 -3.503116e-01 1.659143e-01 -4.339433e-01 -1.628674e-01 4.045608e-03
<VARIANCE> 39
 9.667893e+00 2.927290e+01 2.353961e+01 3.722681e+01 2.360839e+01 2.456269e+01 3.805648e+01 2.666870e+01 2.846173e+01 3.491141e+01 2.589322e+01 2.813318e+01 1.110508e-02 5.458118e-01 1.571666e+00 1.358229e+00 1.950645e+00 2.295320e+00 3.268536e+00 2.136244e+00 2.481550e+00 2.590506e+00 3.383820e+00 2.969835e+00 2.208755e+00 3.825982e-04 8.825667e-02 2.541283e-01 2.748702e-01 5.450450e-01 3.977464e-01 3.896337e-01 4.075792e-01 4.310532e-01 3.688924e-01 3.945008e-01 3.964199e-01 4.389306e-01 5.531251e-05
<GCONST> 8.428523e+01
<MIXTURE> 4 1.373584e-01
<MEAN> 39
 -1.965234e+00 9.401934e+00 -1.675354e+00 -9.048513e+00 -1.735967e+00 -1.014835e+01 1.377930e+00 2.214042e+00 1.220779e-01 2.694356e-02 -1.535796e+00 -2.829611e+00 8.061428e-01 -4.529467e-01 2.515129e+00 -1.563080e+00 1.781384e+00 -8.285537e-01 -1.467756e+00 -4.229715e-01 -1.342888e+00 -1.092324e+00 -2.949236e-01 -5.427836e-01 9.950792e-01 -1.108992e-02 3.273292e-01 -6.995415e-01 1.693792e-01 6.862989e-01 -5.246518e-01 9.683054e-01 -1.607272e-01 -2.643892e-01 -2.109899e-01 -2.835280e-01 -8.859819e-02 2.209572e-01 2.066268e-03
<VARIANCE> 39
 9.030005e+00 2.656963e+01 2.117646e+01 3.438243e+01 2.258720e+01 3.218602e+01 3.922558e+01 3.839427e+01 4.363137e+01 3.781870e+01 3.398320e+01 3.589503e+01 8.873501e-03 7.332744e-01 2.242496e+00 1.219220e+00 2.397852e+00 3.190734e+00 5.179400e+00 3.747963e+00 2.860377e+00 4.172713e+00 6.667769e+00 4.232691e+00 4.149113e+00 3.506341e-04 1.124814e-01 3.404483e-01 3.635711e-01 8.123471e-01 6.190556e-01 5.196633e-01 4.925527e-01 8.140870e-01 9.327093e-01 7.505208e-01 6.319522e-01 6.814807e-01 3.249512e-05
<GCONST> 9.436402e+01
<MIXTURE> 5 1.387808e-01
<MEAN> 39
 6.089770e-01 1.116012e+01 -3.372268e+00 -3.217332e+00 -5.855328e+00 -4.970762e+00 -3.612314e+00 2.581053e-01 -2.653112e+00 -1.916702e+00 -2.464178e+00 -2.352579e+00 7.439165e-01 -3.293931e-01 8.148438e-01 -1.878024e-02 3.449843e-01 -4.056534e-01 1.217271e-01 -4.564050e-01 -3.790556e-01 -5.466795e-01 -1.996480e-01 -1.662759e-01 4.359032e-01 2.416093e-02 -7.870516e-02 -3.133427e-01 2.409068e-01 8.742065e-02 3.112188e-01 1.816635e-01 1.260854e-01 9.372743e-02 3.101979e-01 2.023891e-01 3.717062e-01 3.689264e-01 -6.049466e-03
<VARIANCE> 39
 1.189432e+01 3.622261e+01 2.269254e+01 2.351725e+01 2.425437e+01 2.586889e+01 4.825925e+01 3.713914e+01 3.686163e+01 4.231082e+01 6.051271e+01 5.552372e+01 1.875172e-02 1.140393e+00 1.842087e+00 1.107092e+00 1.659631e+00 1.573145e+00 2.179362e+00 2.618252e+00 3.266254e+00 3.139920e+00 2.627378e+00 4.460478e+00 5.242448e+00 1.128284e-03 1.177180e-01 3.335414e-01 2.175937e-01 3.892109e-01 3.320453e-01 5.060441e-01 5.269504e-01 4.129918e-01 4.254510e-01 5.754928e-01 5.930702e-01 6.192871e-01 4.468585e-04
<GCONST> 9.351821e+01
<MIXTURE> 6 2.582543e-01
<MEAN> 39
 2.760870e+00 1.343490e+01 -1.653243e+00 -6.760020e-01 -3.800658e+00 -2.865824e+00 1.983473e+00 2.884113e+00 8.961653e-01 3.526930e+00 -8.131529e-01 4.876840e+00 7.022939e-01 -1.677724e-01 5.295727e-01 -3.842138e-01 -1.231081e-01 -7.484133e-01 -4.766706e-01 -7.209129e-01 -5.223407e-01 -7.097297e-01 -6.796364e-01 -8.990154e-01 1.109997e-02 2.949722e-02 -2.783462e-01 -4.303899e-01 -1.472134e-01 -1.702179e-01 -2.351912e-02 -2.476424e-01 -3.104935e-01 -2.954912e-01 -2.356062e-01 -4.168201e-01 -1.626659e-01 -3.568197e-01 3.673124e-03
<VARIANCE> 39
 1.022555e+01 2.516464e+01 1.863717e+01 1.736020e+01 1.446670e+01 1.678951e+01 2.519121e+01 2.542694e+01 2.586483e+01 2.750994e+01 2.554116e+01 3.147452e+01 1.160680e-02 7.643306e-01 1.298889e+00 8.839441e-01 1.046795e+00 1.097508e+00 1.401476e+00 1.706754e+00 1.708184e+00 1.992329e+00 2.226006e+00 2.372952e+00 1.892962e+00 1.018639e-03 9.279285e-02 2.733115e-01 1.620254e-01 2.171997e-01 2.805518e-01 2.665625e-01 2.963444e-01 3.078307e-01 3.440123e-01 2.897768e-01 4.496264e-01 4.131409e-01 2.136809e-04
<GCONST> 7.683163e+01
<STATE> 3
<NUMMIXES> 6
<MIXTURE> 1 6.731813e-02
<MEAN> 39
 -3.782597e+00 8.990457e+00 -8.136854e+00 -4.537876e+00 -7.757802e+00 -6.824146e+00 -6.908123e-01 -1.788940e+00 4.700091e+00 7.693001e+00 1.004579e+01 1.537464e+01 9.091374e-01 -6.558394e-02 1.732337e-01 2.635829e-01 5.113043e-01 2.277728e-02 -1.150618e-01 -5.443705e-01 -3.981458e-02 2.021046e-01 4.289596e-01 1.153601e+00 1.005253e+00 1.488391e-02 3.336454e-01 1.944363e-01 1.965609e-01 1.791125e-01 2.410536e-01 1.533825e-01 3.163851e-01 3.259684e-01 5.447845e-02 -2.876019e-01 -4.983486e-01 -7.152437e-01 -5.965698e-03
<VARIANCE> 39
 2.240452e+01 2.928570e+01 2.358491e+01 1.359914e+01 2.494028e+01 2.092435e+01 2.950010e+01 3.060566e+01 6.370314e+01 6.073886e+01 3.898508e+01 5.818351e+01 4.370150e-03 5.895005e-01 5.174742e-01 8.333969e-01 9.252538e-01 1.433186e+00 1.166451e+00 1.477594e+00 1.022713e+00 1.001497e+00 2.106741e+00 2.191432e+00 3.783532e+00 8.278419e-05 5.921720e-02 9.398930e-02 1.426338e-01 1.749095e-01 2.353904e-01 1.791203e-01 2.600850e-01 1.978836e-01 2.879514e-01 3.232642e-01 3.592902e-01 3.109073e-01 1.846763e-05
<GCONST> 7.001316e+01
<MIXTURE> 2 1.311751e-01
<MEAN> 39
 -2.028966e+00 1.079482e+01 -5.733037e+00 -2.926797e+00 -8.360271e+00 -8.142249e+00 -4.796696e+00 -4.661025e+00 -6.052912e+00 -3.903693e+00 -6.962513e+00 9.649389e-01 8.556132e-01 -5.657338e-02 2.439798e-02 3.125199e-02 4.607948e-01 -4.019224e-02 8.729827e-02 -3.773120e-01 -5.098726e-01 -2.740978e-01 -3.828332e-01 -2.170905e-01 2.023636e-01 1.483048e-02 2.684197e-01 1.862851e-01 3.493065e-01 1.945687e-01 4.399593e-01 3.690857e-01 4.564097e-01 6.100993e-01 6.116877e-01 5.246515e-01 5.161788e-01 2.166681e-01 -4.043904e-03
<VARIANCE> 39
 1.255695e+01 2.981150e+01 1.483855e+01 1.771000e+01 1.943125e+01 2.424086e+01 2.466041e+01 2.616076e+01 2.127873e+01 2.166475e+01 2.710437e+01 3.383144e+01 8.561178e-03 3.694028e-01 5.571118e-01 6.406837e-01 1.002011e+00 1.008079e+00 9.392507e-01 1.281842e+00 1.399587e+00 1.240524e+00 1.476505e+00 1.547290e+00 1.715589e+00 1.622796e-04 7.001550e-02 9.517226e-02 1.098619e-01 1.897378e-01 1.510382e-01 2.269047e-01 2.265387e-01 2.020999e-01 1.911110e-01 2.408289e-01 3.053728e-01 3.175575e-01 4.439196e-05
<GCONST> 6.457979e+01
<MIXTURE> 3 3.989993e-01
<MEAN> 39
 -1.014962e+00 1.415240e+01 3.704558e-01 -1.744460e+00 -5.687702e+00 -4.178378e+00 -9.231496e+00 4.962788e-01 -1.992995e+00 -2.988732e+00 3.297225e+00 -3.169382e+00 8.185521e-01 -3.230658e-01 7.660350e-01 -1.077271e-01 3.300984e-01 -2.349534e-01 2.415754e-01 -2.692486e-01 1.680245e-02 -3.117442e-01 -3.538538e-01 2.710084e-01 -1.796353e-01 1.660963e-02 1.035001e-01 -2.828205e-01 3.216585e-02 -1.641351e-01 8.822867e-02 1.287181e-02 1.915305e-01 1.435867e-02 1.307017e-01 1.208401e-01 -1.593645e-01 1.307657e-01 -2.656006e-03
<VARIANCE> 39
 1.002187e+01 3.435043e+01 1.450280e+01 1.960094e+01 2.111153e+01 2.538248e+01 2.817200e+01 2.824462e+01 2.880361e+01 3.212702e+01 2.733455e+01 2.181844e+01 6.488376e-03 5.154381e-01 7.352909e-01 8.859071e-01 1.201429e+00 1.113874e+00 1.093810e+00 1.373454e+00 1.440844e+00 1.607499e+00 1.443871e+00 1.371673e+00 1.416394e+00 2.981658e-04 8.114462e-02 1.268882e-01 1.642480e-01 2.285842e-01 2.158922e-01 2.151083e-01 2.143555e-01 2.899675e-01 2.542705e-01 2.660486e-01 2.038591e-01 2.010657e-01 4.613484e-05
<GCONST> 6.809778e+01
<MIXTURE> 4 1.516339e-01
<MEAN> 39
 -1.024278e+00 1.229798e+01 -3.915235e+00 -1.193352e+00 -6.447943e+00 -6.133192e+00 -1.549149e+00 -1.326788e+00 -2.867529e+00 -4.900991e-01 -5.789832e+00 4.381119e+00 8.437454e-01 -9.036497e-01 -8.014223e-01 -9.656239e-01 -4.977183e-01 -1.013816e+00 -1.305055e+00 -1.643925e+00 -1.583235e+00 -1.397491e+00 -1.423821e+00 -1.122138e+00 -6.825690e-01 2.697960e-02 1.676261e-01 -4.727013e-02 1.263280e-01 5.977483e-02 1.390286e-01 1.160915e-01 1.198380e-01 1.228730e-01 1.643153e-01 1.627417e-01 2.285304e-01 6.105683e-02 -6.617129e-03
<VARIANCE> 39
 1.330881e+01 2.904911e+01 1.380074e+01 1.332100e+01 1.075838e+01 1.483241e+01 1.882511e+01 2.534617e+01 1.781276e+01 1.971698e+01 1.645080e+01 1.796659e+01 5.937835e-03 3.598662e-01 3.784711e-01 5.499427e-01 8.590117e-01 8.830894e-01 8.984812e-01 7.939789e-01 1.213534e+00 9.785469e-01 1.327311e+00 1.792645e+00 2.061456e+00 2.453931e-04 7.785507e-02 7.422034e-02 9.601530e-02 1.226537e-01 1.750374e-01 1.788200e-01 2.258451e-01 2.128236e-01 2.303779e-01 2.176673e-01 2.039969e-01 2.140880e-01 3.288151e-05
<GCONST> 5.821568e+01
<MIXTURE> 5 1.311779e-01
<MEAN> 39
 -2.029141e+00 1.079448e+01 -5.732858e+00 -2.926689e+00 -8.359948e+00 -8.141991e+00 -4.796611e+00 -4.660910e+00 -6.052768e+00 -3.903476e+00 -6.962277e+00 9.651417e-01 8.556172e-01 -5.660540e-02 2.433915e-02 3.124152e-02 4.607791e-01 -4.015828e-02 8.726368e-02 -3.773483e-01 -5.099187e-01 -2.741114e-01 -3.828341e-01 -2.170978e-01 2.023107e-01 1.483150e-02 2.684414e-01 1.862929e-01 3.493024e-01 1.945739e-01 4.399380e-01 3.690915e-01 4.564147e-01 6.100917e-01 6.116894e-01 5.246512e-01 5.161766e-01 2.166708e-01 -4.044496e-03
<VARIANCE> 39
 1.255661e+01 2.981456e+01 1.483835e+01 1.770928e+01 1.943093e+01 2.424094e+01 2.465931e+01 2.616027e+01 2.127878e+01 2.166461e+01 2.710423e+01 3.383117e+01 8.561520e-03 3.694154e-01 5.570362e-01 6.406301e-01 1.001911e+00 1.008004e+00 9.391893e-01 1.281761e+00 1.399480e+00 1.240450e+00 1.476422e+00 1.547158e+00 1.715505e+00 1.622752e-04 7.001749e-02 9.516683e-02 1.098539e-01 1.897234e-01 1.510319e-01 2.268968e-01 2.265270e-01 2.020883e-01 1.911073e-01 2.408132e-01 3.053689e-01 3.175448e-01 4.439413e-05
<GCONST> 6.457845e+01
<MIXTURE> 6 1.196948e-01
<MEAN> 39
 6.116315e-01 1.411594e+01 -3.752981e+00 -1.826627e+00 -5.585919e+00 -7.224795e+00 -4.092950e+00 8.415276e-01 -2.960560e+00 -7.730191e-01 -3.722978e+00 8.584903e-01 8.143712e-01 -2.209189e-01 1.740210e-01 -1.792891e-01 1.035918e-01 -4.554375e-01 -5.781014e-01 -9.124297e-01 -5.911209e-01 -6.143307e-01 -3.177261e-01 -7.733229e-01 -3.346199e-01 2.120565e-02 1.170907e-02 -1.740613e-01 4.667593e-02 -8.949347e-02 1.091396e-01 1.160022e-01 2.352521e-01 -2.692309e-02 7.158503e-02 1.128007e-02 2.643484e-01 2.869256e-02 -3.414140e-03
<VARIANCE> 39
 1.143746e+01 2.873009e+01 1.564616e+01 2.581292e+01 2.452694e+01 2.430243e+01 4.549326e+01 2.169039e+01 3.351299e+01 3.414220e+01 2.123052e+01 3.935516e+01 7.447805e-03 3.245763e-01 5.122026e-01 5.964675e-01 7.380869e-01 1.149006e+00 1.330960e+00 1.253192e+00 1.644827e+00 1.144917e+00 1.117625e+00 1.403874e+00 1.691809e+00 2.531048e-04 6.824280e-02 8.436158e-02 1.034298e-01 2.419848e-01 2.167959e-01 1.995856e-01 2.193557e-01 1.850303e-01 2.908050e-01 2.712376e-01 2.319686e-01 3.693189e-01 5.992702e-05
<GCONST> 6.708278e+01
<STATE> 4
<NUMMIXES> 6
<MIXTURE> 1 6.509953e-02
<MEAN> 39
 -2.608688e+00 1.153396e+01 -5.995351e+00 -2.745640e+00 -8.658779e+00 -8.413250e+00 -5.466025e+00 -4.776807e+00 -4.708401e+00 -2.283335e+00 -4.129844e+00 3.556975e+00 8.912924e-01 5.166658e-01 7.429081e-01 7.423541e-01 1.077664e+00 1.068786e+00 1.251200e+00 9.061216e-01 9.095432e-01 7.954130e-01 7.512217e-01 7.746021e-01 4.739728e-01 6.042795e-03 1.049116e-01 1.321595e-01 1.954986e-01 1.200788e-01 2.761978e-01 1.772889e-01 3.364198e-01 3.037193e-01 1.834667e-01 2.439327e-01 1.668628e-01 5.126586e-02 -2.362895e-03
<VARIANCE> 39
 1.389971e+01 2.741006e+01 1.251086e+01 1.809347e+01 1.324823e+01 1.594525e+01 2.286814e+01 2.071460e+01 2.840739e+01 2.538490e+01 5.329689e+01 8.030034e+01 6.239149e-03 1.354820e-01 3.278489e-01 3.778669e-01 5.060713e-01 3.707494e-01 7.792001e-01 8.372129e-01 5.578339e-01 5.396016e-01 8.141888e-01 7.208531e-01 1.112369e+00 4.176806e-05 1.770001e-02 3.762006e-02 5.133040e-02 1.018697e-01 1.208022e-01 1.197117e-01 1.172536e-01 1.283498e-01 1.433693e-01 9.095805e-02 1.529856e-01 1.585264e-01 6.622228e-06
<GCONST> 4.553846e+01
<MIXTURE> 2 1.215318e-01
<MEAN> 39
 -4.362616e-01 1.263057e+01 -4.836546e+00 -8.378529e-01 -5.743951e+00 -5.281399e+00 -1.500378e+00 -1.286371e+00 -4.193567e-01 1.670792e+00 5.460743e-01 6.433182e+00 9.008704e-01 2.450081e-01 3.619484e-01 2.868848e-01 5.543346e-01 4.366899e-01 3.550451e-01 3.066386e-01 2.627140e-01 4.133617e-01 2.781264e-01 2.918501e-01 2.998565e-01 5.899372e-03 -3.505465e-02 -1.008691e-01 -4.055760e-02 -1.548357e-01 -3.088244e-02 -1.005178e-01 -1.043956e-02 -1.406361e-02 3.371601e-02 4.589834e-02 -7.867761e-03 -1.431603e-01 -2.564090e-03
<VARIANCE> 39
 1.505257e+01 3.201644e+01 2.294255e+01 1.471640e+01 1.869761e+01 2.247834e+01 2.136469e+01 3.146450e+01 6.054134e+01 6.258791e+01 8.100471e+01 6.600051e+01 5.372034e-03 2.268466e-01 3.893183e-01 5.715024e-01 6.778557e-01 8.123899e-01 9.097655e-01 9.892786e-01 9.085270e-01 8.679798e-01 1.084327e+00 1.084544e+00 1.380730e+00 5.899107e-05 4.251384e-02 7.159923e-02 1.089531e-01 1.080287e-01 1.487639e-01 1.513921e-01 1.357483e-01 1.774409e-01 1.633566e-01 1.944934e-01 2.210944e-01 1.841507e-01 9.670579e-06
<GCONST> 5.869394e+01
<MIXTURE> 3 3.859006e-01
<MEAN> 39
 -1.181082e+00 1.653063e+01 7.801003e-01 -1.511308e+00 -7.355638e+00 -2.757058e+00 -1.151969e+01 1.456671e+00 -1.366748e+00 -4.908952e+00 4.611973e+00 -4.869187e+00 8.509666e-01 -3.040902e-02 1.407626e-01 4.720282e-02 7.493054e-02 1.711911e-01 9.361754e-03 8.254413e-02 4.912265e-02 1.778971e-01 9.627141e-03 6.694851e-03 -8.471622e-02 4.137887e-03 1.496583e-02 -9.911674e-02 3.459712e-02 -8.323386e-02 9.649609e-02 -1.172372e-01 7.331304e-02 -6.377487e-02 7.578778e-02 5.702885e-02 -2.558116e-02 7.773102e-02 -1.670195e-03
<VARIANCE> 39
 9.357427e+00 2.333626e+01 1.039741e+01 1.375677e+01 2.120337e+01 2.266460e+01 2.269124e+01 2.676664e+01 3.022070e+01 3.144922e+01 2.107168e+01 1.622385e+01 4.298618e-03 1.840615e-01 2.886807e-01 3.810489e-01 4.653392e-01 4.785661e-01 6.932783e-01 8.068379e-01 8.423484e-01 1.024071e+00 7.787900e-01 7.209659e-01 7.076564e-01 6.576050e-05 3.754144e-02 4.768033e-02 6.457777e-02 7.730708e-02 9.696197e-02 1.221813e-01 1.368964e-01 1.465948e-01 1.839059e-01 1.342071e-01 1.288714e-01 1.063095e-01 7.563744e-06
<GCONST> 4.541563e+01
<MIXTURE> 4 1.577128e-01
<MEAN> 39
 -5.520138e-02 1.446816e+01 -3.412983e+00 9.860647e-01 -5.270522e+00 -5.427054e+00 -1.160581e+00 -8.998936e-01 -1.623656e+00 -4.591219e-01 -2.194612e+00 5.812136e+00 8.777337e-01 -2.897550e-02 -9.140095e-02 -2.353404e-01 4.768894e-02 -1.055629e-01 -2.543359e-01 -1.170373e-01 -1.695814e-01 -8.133787e-02 5.220031e-02 1.587605e-02 3.189847e-02 5.205852e-03 -1.522174e-01 -2.528065e-01 -2.401023e-01 -3.724318e-01 -2.596661e-01 -3.154052e-01 -2.298990e-01 -2.555012e-01 -2.196843e-01 -2.071534e-01 -1.901405e-01 -2.891891e-01 -2.037419e-03
<VARIANCE> 39
 1.450906e+01 3.205051e+01 1.182500e+01 1.368276e+01 1.870895e+01 2.457481e+01 1.722316e+01 2.773915e+01 2.224163e+01 1.872118e+01 5.200014e+01 5.296428e+01 5.858829e-03 1.356518e-01 3.314899e-01 3.333272e-01 4.390178e-01 5.101748e-01 6.232622e-01 7.323822e-01 6.174255e-01 5.767603e-01 7.088621e-01 8.942955e-01 8.632914e-01 4.527850e-05 2.327542e-02 5.335784e-02 6.125774e-02 8.182199e-02 1.117192e-01 1.349337e-01 1.842279e-01 1.500961e-01 1.366055e-01 1.328370e-01 1.694390e-01 1.527645e-01 7.964968e-06
<GCONST> 4.672559e+01
<MIXTURE> 5 1.215341e-01
<MEAN> 39
 -4.361095e-01 1.263044e+01 -4.836437e+00 -8.377565e-01 -5.743883e+00 -5.281384e+00 -1.500588e+00 -1.286429e+00 -4.198746e-01 1.670313e+00 5.457168e-01 6.432720e+00 9.008688e-01 2.450005e-01 3.619840e-01 2.868683e-01 5.543393e-01 4.367216e-01 3.550389e-01 3.066816e-01 2.627102e-01 4.133831e-01 2.781330e-01 2.918785e-01 2.999172e-01 5.899678e-03 -3.505273e-02 -1.008791e-01 -4.054755e-02 -1.548356e-01 -3.087623e-02 -1.005211e-01 -1.044286e-02 -1.406608e-02 3.373396e-02 4.590339e-02 -7.873192e-03 -1.431736e-01 -2.564136e-03
<VARIANCE> 39
 1.505275e+01 3.201607e+01 2.294257e+01 1.471651e+01 1.869934e+01 2.248013e+01 2.136453e+01 3.146377e+01 6.053517e+01 6.258395e+01 8.100182e+01 6.600016e+01 5.372033e-03 2.268611e-01 3.893745e-01 5.715858e-01 6.779196e-01 8.124877e-01 9.098632e-01 9.893792e-01 9.086349e-01 8.680799e-01 1.084410e+00 1.084595e+00 1.380839e+00 5.899515e-05 4.251618e-02 7.160781e-02 1.089723e-01 1.080386e-01 1.487854e-01 1.514049e-01 1.357586e-01 1.774602e-01 1.633745e-01 1.945114e-01 2.211173e-01 1.841652e-01 9.671608e-06
<GCONST> 5.869653e+01
<MIXTURE> 6 1.482191e-01
<MEAN> 39
 -2.140704e+00 1.413029e+01 1.039143e+00 -3.429884e+00 -5.662085e+00 -7.947728e+00 -9.380726e+00 -1.571280e+00 -3.976492e-01 -2.946447e+00 2.399789e+00 -3.038348e+00 8.852265e-01 -1.428647e-01 1.631189e-01 -1.560952e-01 -3.473303e-02 -1.663436e-01 -2.311925e-01 -2.002367e-01 -3.050308e-01 -1.461177e-01 -1.508664e-01 -1.682152e-01 -2.485204e-01 7.207378e-03 6.838819e-02 -9.723857e-02 -9.116793e-02 -7.972349e-02 1.038208e-01 1.698889e-01 6.947179e-02 5.980418e-02 -3.727265e-02 1.055560e-02 -2.661322e-02 8.272415e-02 -2.349242e-03
<VARIANCE> 39
 8.967667e+00 2.985101e+01 2.235881e+01 2.168606e+01 1.984352e+01 1.940334e+01 3.730131e+01 3.440784e+01 3.393866e+01 5.531223e+01 4.708781e+01 2.658481e+01 5.929544e-03 1.142800e-01 4.629989e-01 4.117306e-01 6.911264e-01 5.054907e-01 6.408545e-01 9.747096e-01 9.651172e-01 7.238325e-01 8.489609e-01 8.568792e-01 8.344203e-01 7.296120e-05 1.809211e-02 5.782807e-02 1.045209e-01 1.290868e-01 1.116582e-01 1.004239e-01 2.199393e-01 2.184745e-01 1.816651e-01 2.020056e-01 1.251504e-01 2.058318e-01 1.663511e-05
<GCONST> 5.370909e+01
<STATE> 5
<NUMMIXES> 6
<MIXTURE> 1 1.009636e-01
<MEAN> 39
 -2.227298e+00 8.493591e+00 -5.199261e+00 -2.345306e+00 -6.663222e+00 -7.267401e+00 -3.842671e+00 -3.619115e+00 -3.872742e+00 -3.584663e+00 -5.147992e+00 3.751732e-01 8.958147e-01 2.012013e-01 1.929726e-01 2.510119e-01 2.136243e-01 3.588507e-01 3.607622e-01 3.478782e-01 3.323869e-01 4.188002e-01 1.519559e-01 3.538313e-01 1.716860e-01 -1.654908e-04 1.135432e-01 1.683006e-01 2.231605e-01 1.740798e-01 2.574117e-01 2.642266e-01 2.484835e-01 2.775449e-01 2.613612e-01 2.141976e-01 1.583334e-01 1.247923e-01 -1.210376e-03
<VARIANCE> 39
 1.279435e+01 4.832764e+01 1.203708e+01 1.121222e+01 1.474809e+01 2.244286e+01 1.306185e+01 1.268598e+01 1.416324e+01 1.249438e+01 1.589588e+01 2.274008e+01 1.157043e-02 8.865715e-02 1.732877e-01 2.811720e-01 3.054799e-01 4.362730e-01 4.395994e-01 4.597472e-01 4.302118e-01 4.948702e-01 3.551402e-01 4.016136e-01 3.215906e-01 3.754082e-05 1.975796e-02 3.060061e-02 6.596421e-02 5.074265e-02 7.658640e-02 8.418497e-02 9.278119e-02 7.663434e-02 1.015659e-01 5.990362e-02 9.291652e-02 8.684910e-02 4.366113e-06
<GCONST> 3.128621e+01
<MIXTURE> 2 1.491447e-01
<MEAN> 39
 -1.103369e+00 7.004730e+00 -1.489116e+00 -1.106321e-01 -2.081097e+00 -2.750237e+00 -2.295043e+00 2.569973e-02 -1.942072e+00 -1.006134e-01 -6.245112e-01 2.448799e+00 9.446203e-01 1.132531e-01 1.164042e-01 1.363177e-01 1.179064e-01 1.710868e-01 8.273169e-02 1.896261e-01 1.100955e-01 1.931826e-01 1.170476e-01 8.036295e-02 4.766326e-02 -9.855677e-04 -1.506326e-02 -4.560043e-02 -4.417172e-02 -6.090804e-02 -6.731186e-02 -8.049867e-02 -3.841474e-02 -5.234517e-02 -2.345814e-02 -2.570596e-02 -3.606994e-02 -5.680802e-02 -1.039903e-03
<VARIANCE> 39
 8.762614e+00 3.091692e+01 6.130764e+00 1.153662e+01 9.530924e+00 1.670868e+01 1.695867e+01 1.319288e+01 1.768067e+01 1.499545e+01 2.906139e+01 3.008453e+01 2.384850e-03 8.127115e-02 1.471858e-01 2.114288e-01 2.714778e-01 3.272061e-01 3.555746e-01 3.595619e-01 3.609419e-01 3.431616e-01 3.371899e-01 2.967967e-01 3.489241e-01 3.754082e-05 1.246218e-02 2.537631e-02 3.431947e-02 4.141529e-02 5.877503e-02 5.200043e-02 6.204493e-02 5.875307e-02 6.075001e-02 5.696915e-02 5.265902e-02 5.751635e-02 3.730628e-06
<GCONST> 2.225783e+01
<MIXTURE> 3 2.972608e-01
<MEAN> 39
 -2.459805e+00 1.632588e+01 1.273617e-01 -2.273730e+00 -4.409910e+00 -4.869551e+00 -8.759711e+00 -1.243573e-01 -1.093747e+00 -4.317539e+00 4.474537e+00 -2.993438e+00 8.657073e-01 -1.077019e-02 1.928246e-02 -2.887808e-02 -9.653119e-02 9.483876e-02 -6.394219e-02 5.105509e-02 -3.400514e-02 4.465150e-02 -3.956958e-03 6.908605e-03 1.172819e-02 5.948786e-04 1.928123e-02 -4.758365e-02 1.756093e-02 -5.081302e-02 9.528665e-03 -2.576281e-02 1.891712e-02 -3.396536e-04 1.583836e-02 3.678357e-02 -2.346306e-02 2.487511e-02 -1.063862e-03
<VARIANCE> 39
 7.659894e+00 3.141206e+01 9.741417e+00 9.416203e+00 9.811836e+00 1.438044e+01 1.791447e+01 1.654369e+01 1.620063e+01 2.370036e+01 1.803684e+01 1.172379e+01 6.379979e-03 6.853915e-02 1.003385e-01 1.180178e-01 1.595783e-01 1.631293e-01 1.854336e-01 1.843809e-01 2.196436e-01 2.494987e-01 2.445268e-01 1.675673e-01 2.026153e-01 3.754082e-05 1.168372e-02 1.916122e-02 2.250504e-02 3.118261e-02 3.156528e-02 3.542963e-02 3.279338e-02 3.705608e-02 4.696131e-02 4.331503e-02 3.184981e-02 4.116994e-02 3.730628e-06
<GCONST> 1.203572e+01
<MIXTURE> 4 1.327389e-01
<MEAN> 39
 -1.589514e+00 7.877136e+00 -2.929801e+00 -8.087619e-01 -3.445618e+00 -4.350632e+00 -1.859103e+00 -1.203280e+00 -2.503875e+00 -1.307063e+00 -2.997839e+00 2.160904e+00 9.250509e-01 -1.778768e-01 -5.037271e-01 -5.789931e-01 -5.413781e-01 -6.105638e-01 -6.249955e-01 -6.133561e-01 -6.879148e-01 -5.389321e-01 -4.835530e-01 -3.249838e-01 -5.157660e-01 -4.322659e-04 -1.535369e-02 -3.174852e-02 -2.241453e-02 -7.566901e-02 -6.599541e-02 -6.065770e-02 -6.221645e-02 -3.710001e-02 -4.297613e-02 -4.979891e-02 -1.768276e-02 -6.688543e-02 -9.982779e-04
<VARIANCE> 39
 9.952046e+00 4.362268e+01 7.550737e+00 1.084099e+01 1.381882e+01 2.344113e+01 1.272278e+01 1.671703e+01 1.560161e+01 1.605593e+01 2.235270e+01 2.879923e+01 5.004497e-03 8.839420e-02 1.323479e-01 2.120000e-01 2.563621e-01 3.847058e-01 3.403309e-01 3.968813e-01 3.464188e-01 4.697490e-01 4.002189e-01 4.710062e-01 4.264995e-01 3.754082e-05 1.410831e-02 3.322531e-02 4.748244e-02 5.023235e-02 7.446221e-02 7.666669e-02 8.057959e-02 9.467684e-02 6.898413e-02 7.351469e-02 7.618675e-02 7.204620e-02 3.730628e-06
<GCONST> 2.841131e+01
<MIXTURE> 5 1.491464e-01
<MEAN> 39
 -1.103350e+00 7.004864e+00 -1.489107e+00 -1.105484e-01 -2.081114e+00 -2.750210e+00 -2.295064e+00 2.574784e-02 -1.942072e+00 -1.006179e-01 -6.245478e-01 2.448727e+00 9.446191e-01 1.132568e-01 1.164141e-01 1.363249e-01 1.179140e-01 1.710988e-01 8.274063e-02 1.896371e-01 1.100980e-01 1.931967e-01 1.170625e-01 8.037359e-02 4.766643e-02 -9.855854e-04 -1.506461e-02 -4.560584e-02 -4.417760e-02 -6.091256e-02 -6.731800e-02 -8.050668e-02 -3.841915e-02 -5.235421e-02 -2.346373e-02 -2.570934e-02 -3.607299e-02 -5.681050e-02 -1.039907e-03
<VARIANCE> 39
 8.763041e+00 3.091726e+01 6.130831e+00 1.153716e+01 9.531159e+00 1.670919e+01 1.695901e+01 1.319347e+01 1.768043e+01 1.499530e+01 2.906123e+01 3.008524e+01 2.384927e-03 8.127292e-02 1.471920e-01 2.114370e-01 2.714849e-01 3.272220e-01 3.555918e-01 3.595750e-01 3.609553e-01 3.431733e-01 3.371959e-01 2.968076e-01 3.489362e-01 3.754082e-05 1.246261e-02 2.537793e-02 3.432123e-02 4.141779e-02 5.877849e-02 5.200341e-02 6.204784e-02 5.875667e-02 6.075349e-02 5.697154e-02 5.266158e-02 5.751801e-02 3.730628e-06
<GCONST> 2.225912e+01
<MIXTURE> 6 1.707370e-01
<MEAN> 39
 -5.572968e-01 1.336274e+01 -5.605406e+00 -1.977220e+00 -6.848439e+00 -9.217463e+00 -5.053601e+00 -2.171805e+00 -4.610603e+00 -2.543921e+00 -6.208795e+00 9.384282e-01 8.485250e-01 -3.067911e-02 -6.741927e-02 -1.815855e-01 -1.488262e-01 -1.098110e-01 -1.944229e-01 -4.679537e-02 -2.323142e-01 7.266563e-03 -1.414675e-01 -1.128693e-01 -2.207806e-01 -3.508145e-04 1.502273e-02 1.887503e-02 7.057419e-02 8.988903e-03 7.709688e-02 4.494506e-02 8.389759e-02 6.373093e-02 1.173750e-01 4.785555e-02 9.653711e-02 -5.673021e-04 -1.105657e-03
<VARIANCE> 39
 8.113662e+00 1.685099e+01 1.056810e+01 1.569725e+01 2.139973e+01 1.847241e+01 2.569457e+01 2.527930e+01 2.888101e+01 2.921476e+01 2.077162e+01 2.748645e+01 7.264299e-03 6.969041e-02 1.104182e-01 1.499969e-01 2.637882e-01 2.721571e-01 3.837578e-01 3.651496e-01 3.253717e-01 4.266408e-01 2.802185e-01 3.860087e-01 4.145136e-01 3.754082e-05 1.279904e-02 1.924300e-02 3.325429e-02 3.896668e-02 5.970992e-02 7.147363e-02 7.416303e-02 6.656589e-02 8.440807e-02 6.266852e-02 6.615908e-02 8.110111e-02 3.730628e-06
<GCONST> 2.699584e+01
<STATE> 6
<NUMMIXES> 6
<MIXTURE> 1 1.265324e-01
<MEAN> 39
 -6.390475e-01 6.207016e+00 -5.304104e+00 -2.913201e+00 -7.117329e+00 -6.084993e+00 -4.173486e+00 -4.745963e+00 -4.144629e+00 -4.179891e+00 -5.735221e+00 -7.839799e-01 9.133906e-01 2.938664e-01 3.501192e-01 3.488013e-01 4.098273e-01 4.052635e-01 4.652098e-01 5.672079e-01 5.943878e-01 4.150565e-01 3.910190e-01 3.751713e-01 1.862434e-01 -3.945816e-03 1.627004e-01 2.010773e-01 3.375950e-01 3.253711e-01 4.010198e-01 3.037850e-01 3.929587e-01 4.000558e-01 3.365085e-01 3.403600e-01 2.935508e-01 2.281016e-01 -1.024805e-03
<VARIANCE> 39
 1.071479e+01 4.329451e+01 1.212092e+01 1.087701e+01 2.042267e+01 2.144837e+01 1.216645e+01 2.224110e+01 1.529403e+01 2.349980e+01 2.445556e+01 2.176956e+01 4.417320e-03 1.895176e-01 2.229245e-01 4.257759e-01 5.537090e-01 7.968845e-01 7.554636e-01 8.404689e-01 8.515347e-01 7.421381e-01 7.902597e-01 8.937325e-01 6.789291e-01 3.754082e-05 2.637429e-02 6.250201e-02 7.711920e-02 8.255395e-02 1.292565e-01 1.041449e-01 1.020303e-01 1.567318e-01 1.324434e-01 1.313196e-01 1.672368e-01 1.415776e-01 3.730628e-06
<GCONST> 4.424438e+01
<MIXTURE> 2 1.565603e-01
<MEAN> 39
 1.756854e+00 8.297553e+00 -2.116385e+00 6.356403e-01 -3.006348e+00 -3.103708e+00 -9.817464e-01 -6.937236e-01 -9.427292e-01 -5.756519e-01 -2.611372e+00 6.913726e-01 8.979903e-01 4.372750e-01 1.400424e-01 2.791125e-01 4.216854e-01 4.865938e-01 3.378078e-01 3.326186e-01 2.142441e-01 4.732200e-01 6.231207e-01 3.196989e-01 1.589727e-01 -5.466382e-03 -4.896452e-02 -1.221510e-01 -1.077224e-01 -1.650276e-01 -1.107763e-01 -1.474144e-01 -2.099020e-01 -1.954839e-01 -1.273524e-01 -1.276352e-01 -5.335218e-02 -1.104806e-01 -1.075440e-03
<VARIANCE> 39
 1.073008e+01 4.273383e+01 1.355547e+01 9.351705e+00 1.842652e+01 1.744094e+01 1.643265e+01 1.757780e+01 1.517736e+01 2.829259e+01 2.397668e+01 1.663637e+01 4.750157e-03 2.885606e-01 5.159893e-01 7.618729e-01 6.705690e-01 9.034106e-01 1.083834e+00 1.350573e+00 1.311902e+00 1.071332e+00 1.107155e+00 1.271118e+00 1.153397e+00 5.598006e-05 4.415719e-02 7.986835e-02 1.279029e-01 1.379272e-01 1.656112e-01 1.947473e-01 2.003083e-01 2.030627e-01 1.785439e-01 2.115939e-01 1.979937e-01 1.723852e-01 4.534087e-06
<GCONST> 5.424658e+01
<MIXTURE> 3 2.613042e-01
<MEAN> 39
 -9.830443e-01 1.513430e+01 -7.512785e-01 -1.430273e+00 -3.826588e+00 -5.033245e+00 -8.276404e+00 -3.359704e-01 2.393670e-01 -1.622556e+00 3.826516e+00 -2.216330e+00 8.766305e-01 7.100391e-02 -2.294788e-01 9.545586e-02 -3.035501e-01 2.902428e-01 -2.640494e-01 9.737492e-02 9.532613e-02 3.456897e-01 1.705366e-01 -9.286038e-02 -1.789838e-02 -4.546611e-03 4.296647e-02 -1.719879e-01 9.128612e-02 -1.705578e-01 1.019528e-01 -2.985510e-02 1.514147e-01 3.806545e-02 -4.834209e-03 3.855622e-02 -1.391319e-01 4.773737e-02 -3.118136e-03
<VARIANCE> 39
 1.199795e+01 3.231598e+01 2.010551e+01 2.252869e+01 1.769023e+01 2.381906e+01 3.255385e+01 2.219469e+01 3.502327e+01 4.658007e+01 2.905369e+01 2.887076e+01 4.646647e-03 2.396341e-01 3.400989e-01 5.077614e-01 8.458516e-01 6.896279e-01 6.815954e-01 8.171696e-01 7.614188e-01 1.002701e+00 8.872647e-01 8.690268e-01 7.046632e-01 9.546039e-05 5.450239e-02 7.938144e-02 1.249302e-01 1.346600e-01 1.153455e-01 1.479514e-01 1.560295e-01 1.775440e-01 1.722206e-01 2.009470e-01 1.459417e-01 1.469583e-01 1.068015e-05
<GCONST> 5.485331e+01
<MIXTURE> 4 1.282065e-01
<MEAN> 39
 7.405862e-01 1.032084e+01 -3.068261e+00 9.375089e-01 -3.898046e+00 -3.426138e+00 -1.002590e+00 -1.458701e+00 -1.269906e+00 -1.493605e-02 -3.078012e+00 2.581600e+00 9.163175e-01 -3.947079e-01 -5.023195e-01 -6.656191e-01 -8.554171e-01 -6.001992e-01 -8.891195e-01 -4.812767e-01 -8.085699e-01 -4.027111e-01 -6.658911e-01 -4.716755e-01 -6.320880e-01 -7.314347e-04 -1.443503e-01 -2.328959e-01 -2.027243e-01 -3.761820e-01 -2.180259e-01 -3.629832e-01 -2.150523e-01 -2.322879e-01 -2.105953e-01 -2.847481e-01 -1.755577e-01 -2.275724e-01 -1.254899e-03
<VARIANCE> 39
 1.094710e+01 5.118340e+01 1.506697e+01 1.106519e+01 1.755853e+01 2.561316e+01 1.158537e+01 1.663639e+01 1.624860e+01 1.848764e+01 2.639361e+01 2.642998e+01 4.609820e-03 1.918879e-01 3.718665e-01 3.744451e-01 4.927610e-01 6.788446e-01 7.195300e-01 9.258246e-01 8.436096e-01 8.956565e-01 8.111067e-01 1.412294e+00 8.438578e-01 3.754082e-05 2.988224e-02 8.882705e-02 1.053534e-01 1.269925e-01 1.207941e-01 1.490226e-01 1.464967e-01 1.848588e-01 1.239559e-01 1.482629e-01 1.609124e-01 1.283855e-01 3.730628e-06
<GCONST> 4.749019e+01
<MIXTURE> 5 1.565590e-01
<MEAN> 39
 1.756908e+00 8.297942e+00 -2.116452e+00 6.357263e-01 -3.006576e+00 -3.103846e+00 -9.817308e-01 -6.937221e-01 -9.426861e-01 -5.757093e-01 -2.611508e+00 6.914475e-01 8.979885e-01 4.372750e-01 1.400554e-01 2.791175e-01 4.216857e-01 4.866138e-01 3.378300e-01 3.326349e-01 2.142536e-01 4.732273e-01 6.231355e-01 3.197190e-01 1.589826e-01 -5.466102e-03 -4.896905e-02 -1.221601e-01 -1.077318e-01 -1.650423e-01 -1.107757e-01 -1.474184e-01 -2.099136e-01 -1.954996e-01 -1.273650e-01 -1.276398e-01 -5.335712e-02 -1.104886e-01 -1.075418e-03
<VARIANCE> 39
 1.073049e+01 4.273423e+01 1.355595e+01 9.351771e+00 1.842717e+01 1.744151e+01 1.643262e+01 1.757881e+01 1.517771e+01 2.829448e+01 2.397805e+01 1.663691e+01 4.750307e-03 2.885607e-01 5.159959e-01 7.618768e-01 6.705673e-01 9.034024e-01 1.083842e+00 1.350565e+00 1.311917e+00 1.071345e+00 1.107151e+00 1.271152e+00 1.153441e+00 5.598049e-05 4.415689e-02 7.986968e-02 1.279063e-01 1.379271e-01 1.656120e-01 1.947546e-01 2.003074e-01 2.030688e-01 1.785459e-01 2.115997e-01 1.979986e-01 1.723877e-01 4.534148e-06
<GCONST> 5.424730e+01
<MIXTURE> 6 1.708349e-01
<MEAN> 39
 -3.653785e-01 1.135583e+01 -5.945478e+00 -2.180724e+00 -7.563318e+00 -8.075819e+00 -4.528428e+00 -4.125654e+00 -3.909059e+00 -2.418474e+00 -5.331334e+00 1.052166e+00 8.923033e-01 -3.137673e-01 -4.034751e-01 -4.496975e-01 -8.012087e-01 -3.141438e-01 -7.025828e-01 -2.669001e-01 -5.475043e-01 -1.961847e-01 -5.776135e-01 -1.725255e-01 -5.853081e-01 -2.065983e-03 9.687785e-02 3.196760e-02 2.761296e-01 4.247328e-03 3.630364e-01 1.575381e-01 2.356373e-01 2.748432e-01 2.151884e-01 1.265911e-01 2.971785e-01 4.859555e-02 -2.296336e-03
<VARIANCE> 39
 1.365521e+01 3.970851e+01 1.866525e+01 1.919968e+01 1.912840e+01 2.998788e+01 2.125166e+01 3.140629e+01 2.458664e+01 3.074953e+01 4.568188e+01 5.957179e+01 5.873798e-03 2.382257e-01 3.818651e-01 5.495741e-01 6.760373e-01 1.016637e+00 9.649354e-01 1.208653e+00 9.436692e-01 1.146314e+00 1.094458e+00 1.395251e+00 9.764528e-01 4.610017e-05 3.941237e-02 8.483915e-02 1.137663e-01 1.984411e-01 1.545570e-01 2.212099e-01 2.621897e-01 2.305599e-01 1.954826e-01 2.313066e-01 2.456642e-01 2.589634e-01 9.857325e-06
<GCONST> 6.033414e+01
<STATE> 7
<NUMMIXES> 6
<MIXTURE> 1 6.170560e-02
<MEAN> 39
 -3.394931e+00 9.082032e+00 -8.009490e+00 -4.831526e+00 -1.096290e+01 -9.183160e+00 -1.074250e+00 -3.850992e-01 7.968658e+00 1.121343e+01 1.496341e+01 1.349380e+01 9.421923e-01 1.066459e-01 1.158833e-01 3.907284e-01 1.285449e-01 7.046238e-01 3.341407e-01 5.673506e-02 2.185698e-01 3.065194e-01 8.625239e-01 4.604384e-03 3.436544e-02 -4.202655e-04 1.848435e-01 2.647952e-01 3.691783e-01 2.105104e-01 5.506570e-01 2.399830e-01 2.809620e-01 9.521309e-02 -3.515496e-02 -1.635039e-01 -3.233695e-01 -7.322396e-02 -3.045487e-03
<VARIANCE> 39
 1.533382e+01 1.315753e+01 1.214610e+01 1.168297e+01 4.841071e+01 2.282916e+01 3.236917e+01 3.695547e+01 8.341208e+01 5.311802e+01 5.738026e+01 9.101667e+01 3.165310e-03 6.219378e-01 7.274118e-01 7.817816e-01 7.084887e-01 2.046047e+00 1.269987e+00 1.229549e+00 1.050596e+00 1.017773e+00 2.046087e+00 1.589439e+00 2.123573e+00 4.120321e-05 7.727724e-02 6.030678e-02 1.237127e-01 1.520365e-01 2.126499e-01 2.038382e-01 2.045240e-01 1.312809e-01 2.349376e-01 3.527852e-01 2.927104e-01 2.816543e-01 1.119234e-05
<GCONST> 6.643123e+01
<MIXTURE> 2 1.415134e-01
<MEAN> 39
 2.155522e+00 1.284744e+01 -6.867521e+00 -1.245225e+00 -6.101210e+00 -8.657272e+00 -4.622017e+00 -2.812129e+00 -1.763851e+00 -2.997675e+00 -6.239189e+00 -1.241250e+00 8.155594e-01 2.713121e-01 -2.477215e-01 2.908635e-01 -2.450079e-01 7.437078e-01 -1.677571e-01 1.213158e-01 4.195055e-02 3.647017e-01 -1.294725e-01 6.772475e-01 -4.772553e-03 -7.790211e-03 9.219432e-02 -1.269719e-02 4.598824e-01 3.282379e-02 3.600740e-01 2.718067e-01 1.559798e-01 1.438515e-01 9.529273e-02 1.889206e-01 3.508142e-01 1.279937e-01 -4.030872e-03
<VARIANCE> 39
 2.452504e+01 3.123723e+01 2.572606e+01 2.951501e+01 2.881009e+01 2.731042e+01 2.629058e+01 4.647431e+01 4.356710e+01 3.772182e+01 3.495744e+01 3.643144e+01 1.138612e-02 7.749751e-01 5.848181e-01 1.438091e+00 1.767702e+00 1.503950e+00 2.238493e+00 2.469061e+00 2.126399e+00 2.262125e+00 2.142308e+00 2.391489e+00 2.149536e+00 1.358524e-04 1.181073e-01 1.064036e-01 2.152806e-01 2.781420e-01 3.318983e-01 3.363113e-01 3.391984e-01 4.479437e-01 4.387577e-01 4.856304e-01 3.376401e-01 3.173462e-01 2.244555e-05
<GCONST> 8.037788e+01
<MIXTURE> 3 3.565502e-01
<MEAN> 39
 -1.702808e+00 1.488364e+01 -1.493472e-01 -3.861477e+00 -4.001002e+00 -6.381196e+00 -8.521661e+00 -3.416523e-01 2.341118e-01 -3.685773e+00 3.384749e+00 -3.360866e+00 8.681042e-01 1.136846e-01 -7.206715e-01 5.459433e-01 -1.030606e+00 7.240158e-01 -2.243303e-01 6.331832e-01 1.297939e-01 4.255162e-01 3.484517e-01 -3.170679e-01 2.265560e-01 -9.693344e-03 2.118307e-01 -3.147392e-01 2.535921e-01 3.326855e-02 1.351278e-01 3.482738e-01 2.475271e-01 1.442161e-01 -1.017807e-01 1.259733e-01 -2.411764e-01 9.618366e-02 -6.317503e-03
<VARIANCE> 39
 1.100414e+01 2.931399e+01 1.555175e+01 1.943958e+01 1.583460e+01 2.204682e+01 2.946316e+01 2.113388e+01 2.813854e+01 2.466646e+01 2.573787e+01 2.139834e+01 5.375320e-03 3.909396e-01 6.088023e-01 7.433593e-01 1.374501e+00 8.608693e-01 1.066746e+00 1.244778e+00 1.316106e+00 1.559823e+00 1.431997e+00 1.215073e+00 1.442136e+00 1.725700e-04 5.935793e-02 1.087382e-01 1.448723e-01 2.106931e-01 2.005479e-01 1.789570e-01 2.870310e-01 2.352299e-01 2.350671e-01 1.952110e-01 2.086497e-01 1.949774e-01 3.057054e-05
<GCONST> 6.354279e+01
<MIXTURE> 4 1.045922e-01
<MEAN> 39
 -2.933795e+00 1.278096e+01 -6.846720e+00 -1.598483e+00 -6.820087e+00 -7.116650e+00 2.681860e-01 -2.591121e+00 2.064297e+00 1.135973e+00 2.802080e+00 8.450640e+00 9.079521e-01 -8.398951e-01 -9.819314e-01 -4.186317e-02 -2.107401e+00 4.898879e-01 -1.594750e+00 2.455178e-01 -3.600385e-01 -1.498495e-01 -1.201594e-01 1.694217e-01 -7.890559e-01 -3.648078e-03 2.027115e-01 -3.642250e-01 4.699558e-01 -3.162491e-01 2.195463e-01 3.525385e-02 -2.118813e-01 2.787169e-01 -2.163962e-01 5.018562e-02 -1.673615e-01 -4.345967e-01 -4.875081e-03
<VARIANCE> 39
 2.243814e+01 2.186853e+01 2.751183e+01 2.099837e+01 2.733178e+01 2.878071e+01 2.118467e+01 3.772938e+01 5.432939e+01 6.290532e+01 6.854129e+01 9.299575e+01 3.254448e-03 4.302697e-01 8.270367e-01 1.016346e+00 1.072680e+00 2.338814e+00 1.522088e+00 2.154386e+00 1.552864e+00 1.324693e+00 1.810637e+00 2.022762e+00 2.372812e+00 1.083975e-04 1.194970e-01 1.815394e-01 2.951603e-01 2.303312e-01 3.276675e-01 3.118866e-01 4.071246e-01 3.311884e-01 3.020661e-01 3.233465e-01 2.871755e-01 5.714052e-01 1.450137e-05
<GCONST> 7.751815e+01
<MIXTURE> 5 1.415162e-01
<MEAN> 39
 2.153423e+00 1.284715e+01 -6.867447e+00 -1.247388e+00 -6.103428e+00 -8.658935e+00 -4.622623e+00 -2.813590e+00 -1.766737e+00 -2.999182e+00 -6.240332e+00 -1.241209e+00 8.155851e-01 2.711500e-01 -2.477216e-01 2.910686e-01 -2.452861e-01 7.437389e-01 -1.677292e-01 1.214578e-01 4.194981e-02 3.647004e-01 -1.294302e-01 6.774665e-01 -5.032536e-03 -7.792554e-03 9.234891e-02 -1.264317e-02 4.599515e-01 3.294428e-02 3.603114e-01 2.719743e-01 1.561187e-01 1.440558e-01 9.552369e-02 1.891153e-01 3.509378e-01 1.280435e-01 -4.032082e-03
<VARIANCE> 39
 2.452740e+01 3.123656e+01 2.572378e+01 2.951354e+01 2.880494e+01 2.731141e+01 2.628753e+01 4.646470e+01 4.356160e+01 3.771422e+01 3.495042e+01 3.643330e+01 1.138364e-02 7.748478e-01 5.847207e-01 1.437694e+00 1.767496e+00 1.503542e+00 2.237636e+00 2.469191e+00 2.125871e+00 2.261824e+00 2.141691e+00 2.390902e+00 2.149481e+00 1.358076e-04 1.181134e-01 1.063920e-01 2.152868e-01 2.781484e-01 3.318555e-01 3.362508e-01 3.392304e-01 4.479138e-01 4.387306e-01 4.855853e-01 3.376562e-01 3.173335e-01 2.244540e-05
<GCONST> 8.037363e+01
<MIXTURE> 6 1.941223e-01
<MEAN> 39
 2.648559e+00 1.030381e+01 -3.805621e+00 1.918058e-01 -2.832007e+00 -3.508502e+00 -5.412135e-01 -1.912883e+00 2.267394e+00 3.163124e+00 2.694766e+00 6.459220e+00 8.527187e-01 2.941155e-01 -4.165914e-01 4.319411e-01 -2.601622e-01 3.876250e-01 -1.949698e-01 -3.121123e-01 -1.270096e-01 -3.286462e-01 2.403133e-01 1.369480e-01 -2.873929e-02 -1.195327e-02 -1.035753e-01 -2.706160e-01 1.703560e-01 -7.964238e-02 -1.261224e-01 -1.961483e-01 -2.363676e-01 -1.252914e-01 -3.145968e-01 -3.895121e-01 -3.641641e-01 -4.550503e-01 -6.476122e-03
<VARIANCE> 39
 2.141523e+01 3.386829e+01 1.919809e+01 1.171899e+01 1.774056e+01 1.570139e+01 1.722032e+01 1.425801e+01 2.446003e+01 4.046363e+01 6.218278e+01 6.088577e+01 1.244562e-02 7.307327e-01 5.622588e-01 1.201109e+00 1.238859e+00 1.825039e+00 1.397394e+00 1.242293e+00 1.762004e+00 1.407089e+00 2.071932e+00 2.564878e+00 2.264413e+00 1.123799e-04 1.380665e-01 6.994078e-02 2.107636e-01 2.014998e-01 2.435510e-01 2.782034e-01 2.635480e-01 2.475401e-01 2.505173e-01 3.480207e-01 3.926103e-01 3.340601e-01 2.435004e-05
<GCONST> 7.221141e+01
<STATE> 8
<NUMMIXES> 6
<MIXTURE> 1 1.093338e-01
<MEAN> 39
 -3.322247e+00 1.360174e+01 -7.165388e+00 -6.070251e+00 -5.553443e+00 -1.261209e+01 -6.601931e-01 -4.578994e+00 -2.426235e+00 -3.669694e+00 -4.614581e+00 4.623491e-01 8.740728e-01 1.082254e-01 -1.106447e+00 1.457454e+00 -2.292236e+00 2.059629e+00 -6.213551e-02 1.797230e+00 1.782016e+00 1.082332e+00 8.301430e-01 9.517260e-01 -8.500571e-01 -1.398596e-02 4.950500e-01 -3.732890e-01 6.791334e-01 3.222333e-01 2.393884e-01 1.106199e+00 2.886292e-02 7.312332e-01 1.179527e-01 3.356454e-01 1.693002e-01 6.192382e-02 -8.267635e-03
<VARIANCE> 39
 8.125264e+00 2.727853e+01 7.576694e+00 1.743819e+01 1.631205e+01 2.206147e+01 2.172358e+01 2.645312e+01 1.975809e+01 1.504842e+01 1.989881e+01 2.863674e+01 3.995611e-03 7.720072e-01 1.361246e+00 2.570260e+00 1.687863e+00 1.667261e+00 1.896055e+00 3.060002e+00 2.662066e+00 3.295697e+00 2.103503e+00 1.915081e+00 1.812823e+00 1.880456e-04 1.042980e-01 2.700230e-01 2.551488e-01 3.933025e-01 5.322908e-01 2.812096e-01 4.658498e-01 2.962427e-01 4.014059e-01 3.537517e-01 2.637416e-01 3.664660e-01 6.321762e-05
<GCONST> 7.638078e+01
<MIXTURE> 2 1.005318e-01
<MEAN> 39
 -7.308682e-01 1.098434e+01 -3.273066e+00 -5.470174e+00 -4.197534e+00 -9.761717e+00 -4.995833e+00 -1.248179e+00 -3.289664e+00 -2.983050e+00 -3.809687e+00 -5.294452e+00 8.594727e-01 6.145106e-01 -4.279563e-01 1.434087e+00 1.339174e-01 1.538154e+00 9.235817e-01 3.891705e-01 3.248806e-01 3.679410e-01 -6.212926e-02 1.140751e+00 -3.289372e-01 -2.430230e-02 1.400598e-01 -4.940267e-02 4.829980e-01 6.909329e-01 2.535561e-01 7.063853e-01 1.048787e-01 3.413158e-02 1.148686e-02 2.170556e-01 1.956282e-01 5.468389e-01 -1.103212e-02
<VARIANCE> 39
 1.673945e+01 2.985014e+01 1.358085e+01 2.892038e+01 2.039859e+01 2.162218e+01 3.227955e+01 3.335294e+01 2.182915e+01 2.648715e+01 2.394800e+01 3.335456e+01 4.782556e-03 6.374944e-01 6.699401e-01 1.537169e+00 1.303765e+00 1.531794e+00 1.595058e+00 2.280236e+00 2.329475e+00 2.937551e+00 2.380222e+00 2.717533e+00 2.638122e+00 2.040616e-04 1.581664e-01 1.391807e-01 1.703434e-01 3.138268e-01 2.661237e-01 2.916557e-01 5.224388e-01 4.192373e-01 4.624354e-01 4.009749e-01 3.062773e-01 3.006583e-01 5.782766e-05
<GCONST> 7.781285e+01
<MIXTURE> 3 3.495229e-01
<MEAN> 39
 -1.290443e+00 1.310087e+01 1.966314e+00 -5.270776e+00 -3.087627e+00 -5.211238e+00 -8.016893e+00 -7.543746e-02 4.133697e-01 -3.329200e+00 3.392812e+00 -2.765726e+00 8.376651e-01 7.932556e-01 -1.082637e+00 7.895343e-01 -3.210008e-01 8.158134e-01 7.737951e-01 1.168218e+00 3.387129e-01 2.404489e-01 5.216192e-01 -8.512327e-01 3.603152e-01 -2.528253e-02 1.340340e-01 -1.592613e-01 2.601998e-02 6.215453e-01 1.455475e-01 4.900050e-01 2.967876e-01 3.772931e-02 -1.287977e-01 -6.478974e-03 -1.817786e-01 -1.063822e-02 -1.006021e-02
<VARIANCE> 39
 9.951919e+00 3.314077e+01 1.565600e+01 2.837253e+01 1.560938e+01 1.814713e+01 2.536091e+01 1.921457e+01 2.945473e+01 2.298456e+01 2.116122e+01 1.576821e+01 6.357515e-03 6.124280e-01 1.161743e+00 1.680979e+00 1.987210e+00 1.429133e+00 1.350018e+00 2.088422e+00 1.916161e+00 1.777096e+00 2.249713e+00 1.875700e+00 2.101052e+00 2.671777e-04 1.021629e-01 1.472944e-01 1.420402e-01 2.633064e-01 2.350760e-01 2.298829e-01 2.210716e-01 2.723169e-01 3.281730e-01 2.417942e-01 3.076938e-01 2.053604e-01 5.894895e-05
<GCONST> 7.187120e+01
<MIXTURE> 4 1.407908e-01
<MEAN> 39
 -4.032852e+00 1.077246e+01 -4.399674e+00 -5.925641e+00 -3.057332e+00 -8.921273e+00 3.737654e-01 -2.509892e+00 2.481585e+00 4.617551e+00 5.896350e+00 9.636762e+00 9.032592e-01 4.843620e-01 -1.141882e+00 1.507796e+00 -1.634702e+00 1.124879e+00 -3.517453e-01 -2.649797e-01 7.725913e-01 -9.030862e-01 -2.576655e-01 -1.153167e+00 -1.665150e+00 -1.627898e-02 4.566006e-01 -2.885876e-01 5.000184e-01 4.517762e-01 -2.298748e-01 6.707374e-01 -2.539120e-01 1.769251e-01 -2.060626e-01 -4.249157e-01 -3.199081e-01 -6.150708e-01 -9.552485e-03
<VARIANCE> 39
 1.709953e+01 2.808634e+01 2.441191e+01 1.257376e+01 2.987662e+01 3.194367e+01 3.506381e+01 2.944985e+01 4.824299e+01 7.208517e+01 5.828856e+01 9.066813e+01 5.872427e-03 8.023809e-01 1.365375e+00 1.652913e+00 2.655762e+00 2.234689e+00 1.410646e+00 2.367000e+00 1.806134e+00 1.406464e+00 2.480985e+00 3.260860e+00 3.764170e+00 2.517870e-04 1.365513e-01 2.913161e-01 2.435885e-01 2.798992e-01 6.566820e-01 3.847254e-01 6.117694e-01 3.438863e-01 3.165259e-01 4.683283e-01 3.848311e-01 5.055264e-01 8.871750e-05
<GCONST> 8.688945e+01
<MIXTURE> 5 1.005290e-01
<MEAN> 39
 -7.309587e-01 1.098451e+01 -3.272443e+00 -5.470870e+00 -4.197835e+00 -9.762540e+00 -4.997010e+00 -1.249040e+00 -3.289872e+00 -2.983889e+00 -3.809441e+00 -5.295443e+00 8.594688e-01 6.144113e-01 -4.280029e-01 1.434193e+00 1.339731e-01 1.538113e+00 9.235978e-01 3.890493e-01 3.248711e-01 3.679412e-01 -6.213782e-02 1.140785e+00 -3.288212e-01 -2.430195e-02 1.400268e-01 -4.938442e-02 4.829848e-01 6.910447e-01 2.535936e-01 7.064736e-01 1.050082e-01 3.425105e-02 1.153151e-02 2.171279e-01 1.956320e-01 5.469002e-01 -1.103320e-02
<VARIANCE> 39
 1.674093e+01 2.984857e+01 1.358347e+01 2.892660e+01 2.039800e+01 2.162549e+01 3.228235e+01 3.335426e+01 2.183195e+01 2.648985e+01 2.395097e+01 3.335625e+01 4.782431e-03 6.375157e-01 6.699427e-01 1.537021e+00 1.303823e+00 1.531822e+00 1.595250e+00 2.280130e+00 2.329489e+00 2.937414e+00 2.380215e+00 2.717392e+00 2.638435e+00 2.040334e-04 1.581767e-01 1.391951e-01 1.703451e-01 3.138787e-01 2.661075e-01 2.916638e-01 5.224823e-01 4.192525e-01 4.625234e-01 4.009906e-01 3.063161e-01 3.006645e-01 5.783390e-05
<GCONST> 7.781480e+01
<MIXTURE> 6 1.992918e-01
<MEAN> 39
 5.023759e+00 7.940515e+00 -2.617249e+00 1.596666e+00 -2.081631e+00 -5.472118e+00 -3.188586e+00 -2.841206e+00 -9.408070e-01 8.662447e-01 -4.751997e-01 2.787320e+00 7.990959e-01 2.009143e-01 -5.248060e-01 1.192110e+00 5.192820e-01 5.183143e-01 -9.091720e-03 -2.877191e-01 -5.750926e-01 -3.290195e-01 4.088459e-02 -6.241179e-02 -5.663682e-01 -2.710992e-02 -2.997917e-01 -5.479391e-02 4.052744e-01 2.167324e-01 1.656223e-01 3.762884e-01 1.145379e-01 1.084547e-01 7.234962e-02 -1.291080e-01 -1.153719e-01 -2.438949e-01 -1.117105e-02
<VARIANCE> 39
 1.409157e+01 4.683937e+01 1.740200e+01 1.847157e+01 3.057884e+01 2.998805e+01 2.889664e+01 3.074029e+01 3.285296e+01 3.043550e+01 4.390932e+01 2.935663e+01 9.324231e-03 8.173215e-01 8.326396e-01 1.647843e+00 1.622619e+00 1.564167e+00 1.558389e+00 2.802332e+00 2.364165e+00 1.625816e+00 2.119745e+00 2.332225e+00 2.507283e+00 2.249662e-04 9.870666e-02 1.639452e-01 2.609448e-01 2.204710e-01 2.494248e-01 3.536126e-01 2.409943e-01 3.574041e-01 3.264990e-01 3.171721e-01 4.068097e-01 3.355830e-01 5.741645e-05
<GCONST> 7.904778e+01
<STATE> 9
<NUMMIXES> 6
<MIXTURE> 1 7.347258e-02
<MEAN> 39
 1.733236e+00 1.195874e+01 -2.634728e+00 -4.628098e+00 -3.870491e+00 -1.064871e+01 5.557226e-01 -2.082717e+00 -1.695450e+00 2.810502e+00 5.966270e-01 5.964784e+00 8.407893e-01 6.825651e-01 -8.149955e-01 2.309965e+00 1.255997e+00 1.860539e+00 1.359880e+00 4.921144e-01 9.917325e-01 -8.720279e-01 -4.327418e-01 -1.475884e+00 -2.461719e+00 -6.908543e-02 -5.258156e-01 -3.514977e-01 1.260115e-01 9.866019e-01 4.501674e-01 1.156504e+00 1.822060e-01 1.689800e-01 1.736477e-01 4.566610e-02 3.869066e-01 1.702452e-01 -3.140134e-02
<VARIANCE> 39
 1.227800e+01 2.275619e+01 1.311384e+01 2.613627e+01 2.363288e+01 1.998161e+01 1.670182e+01 2.946616e+01 3.141928e+01 3.792845e+01 3.679626e+01 5.660434e+01 6.803579e-03 1.666460e+00 9.109191e-01 1.686819e+00 1.837746e+00 2.859635e+00 2.043937e+00 3.969079e+00 5.654939e+00 3.574872e+00 7.588572e+00 4.229378e+00 3.476964e+00 6.329818e-04 1.901935e-01 2.621139e-01 1.857610e-01 4.866077e-01 4.849943e-01 2.549961e-01 3.838789e-01 5.904990e-01 4.239503e-01 6.813020e-01 5.372625e-01 4.749891e-01 7.288798e-05
<GCONST> 8.917567e+01
<MIXTURE> 2 1.166637e-01
<MEAN> 39
 1.946110e+00 1.045871e+01 1.541627e+00 -6.612134e+00 8.729025e-01 -6.295457e+00 -2.282201e+00 2.346690e+00 -2.322523e-01 -1.066130e+00 -1.171292e+00 -4.313709e+00 8.062181e-01 7.473999e-01 -7.557796e-01 1.835016e+00 1.968204e+00 1.468475e+00 2.183992e+00 7.006065e-01 6.826363e-01 1.993605e-01 -1.324721e-01 1.491891e-01 2.119582e-02 -4.962910e-02 -5.029113e-01 -7.370176e-02 -1.723509e-01 9.150430e-01 -9.640535e-02 4.107223e-01 -1.046221e-01 -1.857859e-01 -9.445547e-02 3.286134e-02 3.114243e-01 5.209279e-01 -1.819964e-02
<VARIANCE> 39
 8.402670e+00 2.982592e+01 2.373696e+01 3.434484e+01 2.737057e+01 1.838686e+01 3.019112e+01 2.432150e+01 2.373710e+01 1.932285e+01 3.118056e+01 3.212883e+01 4.586993e-03 1.465889e+00 1.361525e+00 2.203663e+00 2.500804e+00 1.748719e+00 2.815909e+00 3.263974e+00 1.869349e+00 2.533115e+00 2.049409e+00 3.594987e+00 3.259907e+00 5.008011e-04 1.997177e-01 2.494427e-01 4.232493e-01 3.955899e-01 4.027211e-01 4.076709e-01 3.929085e-01 4.027938e-01 3.818976e-01 3.952807e-01 5.134130e-01 4.748495e-01 1.660859e-04
<GCONST> 8.624538e+01
<MIXTURE> 3 4.452003e-01
<MEAN> 39
 2.852141e+00 1.040769e+01 1.882077e+00 -1.582757e-01 -1.458890e+00 -3.435382e+00 -5.371702e+00 -2.116718e+00 -1.471641e+00 -1.751298e+00 3.493752e-01 -1.137843e+00 7.503758e-01 3.918278e-01 -4.283110e-01 1.221039e+00 1.143320e+00 1.144556e+00 1.116993e+00 6.775108e-01 -3.388726e-01 -1.192867e-01 1.852044e-01 -1.513473e-01 -6.680922e-03 -4.335605e-02 -3.606790e-01 -1.592632e-01 -6.820199e-02 2.667803e-01 1.291027e-01 2.292519e-01 2.074849e-01 2.120656e-01 1.305352e-01 2.904246e-02 5.314080e-02 6.195743e-02 -1.196083e-02
<VARIANCE> 39
 2.078857e+01 3.717355e+01 2.486042e+01 3.537091e+01 2.002603e+01 2.286720e+01 3.125267e+01 2.874638e+01 2.864032e+01 2.818304e+01 2.716762e+01 2.665642e+01 1.016137e-02 1.175621e+00 7.593580e-01 1.619674e+00 1.209968e+00 1.478256e+00 1.703865e+00 2.363697e+00 2.278293e+00 1.955159e+00 2.045621e+00 2.487933e+00 2.102644e+00 4.123937e-04 1.301687e-01 1.864356e-01 2.358155e-01 2.540842e-01 2.781046e-01 3.327228e-01 4.616875e-01 4.442194e-01 3.691450e-01 3.949472e-01 3.126095e-01 3.546115e-01 1.377786e-04
<GCONST> 8.162432e+01
<MIXTURE> 4 8.866079e-02
<MEAN> 39
 -6.715724e-01 1.047955e+01 -2.098696e+00 -5.308352e+00 -1.749114e+00 -6.945560e+00 2.701396e+00 6.087456e+00 7.439695e+00 1.073541e+01 6.924332e+00 2.630682e+00 7.991166e-01 2.690327e-01 -1.459062e+00 8.508617e-01 -5.945138e-01 8.302095e-01 1.209823e+00 1.093029e-01 1.812440e-01 -7.056983e-01 -1.020930e+00 -7.171078e-01 -9.952248e-01 -3.672647e-02 1.935015e-02 -4.309494e-01 -2.152562e-02 4.148675e-01 -9.513536e-02 7.051855e-01 -1.441932e-01 -5.718237e-01 -6.649799e-01 -9.290745e-01 -6.027246e-01 -8.521820e-02 -1.003561e-02
<VARIANCE> 39
 2.991090e+01 3.503711e+01 2.358825e+01 3.159701e+01 2.182886e+01 2.316901e+01 5.921680e+01 2.626327e+01 6.687467e+01 5.839528e+01 3.882253e+01 7.703182e+01 1.693735e-02 1.684605e+00 2.110783e+00 3.151438e+00 2.538352e+00 2.171908e+00 2.164354e+00 4.354439e+00 4.101281e+00 5.464223e+00 6.923924e+00 5.784996e+00 5.385078e+00 1.427690e-03 3.395565e-01 5.026083e-01 3.220736e-01 5.465757e-01 6.359165e-01 4.482954e-01 5.953862e-01 4.276430e-01 7.561014e-01 7.563351e-01 3.965873e-01 7.396366e-01 2.177306e-04
<GCONST> 1.029691e+02
<MIXTURE> 5 1.166651e-01
<MEAN> 39
 1.945957e+00 1.045879e+01 1.541970e+00 -6.612477e+00 8.726252e-01 -6.295640e+00 -2.282444e+00 2.346677e+00 -2.322834e-01 -1.066232e+00 -1.170958e+00 -4.313587e+00 8.062205e-01 7.473757e-01 -7.558053e-01 1.835057e+00 1.968257e+00 1.468444e+00 2.184067e+00 7.005569e-01 6.826553e-01 1.993964e-01 -1.324382e-01 1.492610e-01 2.126105e-02 -4.963019e-02 -5.029238e-01 -7.370452e-02 -1.723943e-01 9.150807e-01 -9.637766e-02 4.107576e-01 -1.045966e-01 -1.857679e-01 -9.445778e-02 3.286748e-02 3.113949e-01 5.209047e-01 -1.820068e-02
<VARIANCE> 39
 8.402325e+00 2.982467e+01 2.373563e+01 3.434412e+01 2.736860e+01 1.838710e+01 3.019013e+01 2.432177e+01 2.373783e+01 1.932300e+01 3.117899e+01 3.212747e+01 4.586948e-03 1.465915e+00 1.361573e+00 2.203569e+00 2.500812e+00 1.748720e+00 2.815862e+00 3.263901e+00 1.869323e+00 2.533211e+00 2.049445e+00 3.594931e+00 3.259803e+00 5.007827e-04 1.997198e-01 2.494531e-01 4.232140e-01 3.955910e-01 4.027204e-01 4.076750e-01 3.929055e-01 4.028086e-01 3.819009e-01 3.952802e-01 5.133977e-01 4.748472e-01 1.660813e-04
<GCONST> 8.624494e+01
<MIXTURE> 6 1.593379e-01
<MEAN> 39
 -3.145021e+00 9.298506e+00 9.916751e-01 -1.114282e+01 -1.394941e-01 -8.771408e+00 -3.339797e+00 4.855505e-01 -4.898559e-01 -8.656522e-01 -8.245886e-01 -1.570076e+00 8.711540e-01 8.813109e-01 -2.549110e+00 1.902466e+00 -1.294297e+00 -3.406773e-01 1.803761e+00 2.229815e-02 1.037112e+00 -5.637265e-02 1.321799e-02 -4.850121e-01 -4.438480e-01 -1.249305e-02 3.528325e-01 -2.482114e-01 -1.683801e-01 1.164070e+00 -7.177795e-01 6.012622e-01 6.744914e-02 -1.473619e-01 8.443531e-02 -1.409747e-01 -2.004667e-02 8.655044e-02 -3.123192e-03
<VARIANCE> 39
 1.643175e+01 3.381690e+01 2.229540e+01 1.942409e+01 2.556429e+01 3.756685e+01 3.487183e+01 2.470277e+01 2.508383e+01 2.217730e+01 3.484642e+01 2.457792e+01 7.991548e-03 7.167018e-01 1.577825e+00 2.216258e+00 2.066392e+00 3.167743e+00 2.454055e+00 4.212168e+00 3.142997e+00 2.862589e+00 4.271901e+00 3.207265e+00 2.657330e+00 2.546856e-04 1.732528e-01 2.839965e-01 1.997317e-01 4.717435e-01 3.892482e-01 4.420810e-01 5.033216e-01 3.871856e-01 3.940457e-01 3.936630e-01 3.951944e-01 4.030968e-01 4.659103e-05
<GCONST> 8.614479e+01
<STATE> 10
<MEAN> 39
 -2.422980e+00 3.988173e+00 -1.313198e+00 -1.471990e+01 1.906250e-01 1.350826e+00 1.716958e+00 6.715878e+00 3.099972e+00 -6.274991e-01 -5.152174e-01 -9.240617e-01 8.097969e-01 3.012911e-01 -3.609508e+00 8.355576e-01 3.724416e-01 -6.304520e-02 3.909163e+00 1.227880e+00 -7.895594e-01 -6.377800e-01 -1.060628e+00 -6.837681e-01 8.394099e-01 -2.092107e-02 4.332462e-02 6.713157e-03 -1.728645e-01 1.333915e+00 -4.733409e-01 -2.941281e-01 -2.153329e-01 -1.119300e+00 -3.641482e-01 5.512828e-02 7.100571e-04 1.592776e-01 6.891214e-04
<VARIANCE> 39
 1.024741e+01 3.291843e+01 4.018021e+01 1.631038e+01 3.633389e+01 5.098372e+01 8.652297e+01 2.292736e+01 4.275953e+01 3.685610e+01 4.784002e+01 4.608956e+01 1.069410e-02 7.374587e-01 1.160398e+00 2.073713e+00 3.433648e+00 5.537956e+00 2.928659e+00 6.435231e+00 5.109039e+00 6.431865e+00 5.895357e+00 7.927002e+00 4.703810e+00 8.430981e-04 1.260129e-01 3.113627e-01 4.808590e-01 3.751368e-01 5.052132e-01 1.145118e+00 1.271367e+00 6.962447e-01 1.642355e+00 1.268387e+00 1.085494e+00 9.223195e-01 1.186372e-04
<GCONST> 1.039608e+02
<STATE> 11
<MEAN> 39
 2.234378e+00 8.733772e+00 3.786185e+00 -6.212771e-01 2.457484e-02 -1.689407e+00 -3.154848e+00 -1.466219e+00 -1.035717e+00 -1.902300e+00 -8.118503e-01 -1.276647e+00 7.063592e-01 -3.665466e-01 -1.278846e+00 9.877170e-01 1.997940e+00 8.011552e-01 1.682866e+00 7.214789e-01 1.065205e-01 -4.147251e-02 5.520965e-02 1.045640e-01 2.367226e-01 -6.624063e-02 -5.921841e-01 -2.855830e-01 -5.558485e-01 6.430286e-02 -6.095304e-02 -1.092791e-01 2.092722e-01 3.413696e-01 2.947209e-01 3.187817e-01 2.681653e-01 2.022174e-01 -1.218766e-02
<VARIANCE> 39
 1.876233e+01 4.746984e+01 2.847038e+01 4.933572e+01 3.290029e+01 3.531690e+01 4.023806e+01 3.900024e+01 3.588549e+01 3.325685e+01 3.832515e+01 3.484142e+01 1.525005e-02 1.796859e+00 2.389810e+00 2.003351e+00 2.598969e+00 3.354379e+00 2.898577e+00 3.149907e+00 3.243972e+00 3.003328e+00 3.222757e+00 3.130260e+00 3.102767e+00 2.118847e-03 3.385297e-01 3.394901e-01 4.633291e-01 5.709236e-01 4.891942e-01 7.238939e-01 6.135995e-01 6.755658e-01 5.783189e-01 6.326844e-01 6.191763e-01 5.776945e-01 3.231711e-04
<GCONST> 1.008407e+02
<STATE> 12
<MEAN> 39
 1.500173e-01 6.472820e+00 4.583540e+00 1.972972e+00 9.824926e-01 7.225296e-01 -1.698959e+00 -7.767899e-01 -7.547842e-01 -1.482587e+00 3.414101e-01 -1.506742e-01 5.995858e-01 -1.316139e+00 -2.013097e+00 -2.297636e-01 1.393219e+00 6.378917e-01 1.171827e+00 1.076631e+00 8.883631e-01 6.819788e-01 7.950203e-01 5.672279e-01 5.737228e-01 -8.154552e-02 -2.984974e-01 -1.166089e-01 -6.435875e-01 -4.322498e-01 -1.114406e-01 -3.742161e-01 1.085483e-01 3.058080e-01 3.447828e-01 3.008560e-01 1.001977e-01 1.719495e-02 2.256952e-03
<VARIANCE> 39
 1.817358e+01 5.721513e+01 2.585214e+01 5.231422e+01 4.178115e+01 3.568425e+01 4.160891e+01 3.226192e+01 3.723803e+01 3.649214e+01 3.807180e+01 3.257510e+01 3.224688e-02 2.889190e+00 2.470725e+00 2.468501e+00 3.186800e+00 3.267234e+00 4.063805e+00 3.143038e+00 3.973502e+00 3.521172e+00 3.352222e+00 3.198364e+00 3.249002e+00 4.594637e-03 2.235513e-01 4.526202e-01 4.669414e-01 5.967959e-01 7.181323e-01 6.967906e-01 7.186123e-01 5.797810e-01 5.732602e-01 6.393601e-01 6.066342e-01 5.533410e-01 4.113371e-04
<GCONST> 1.047838e+02
<TRANSP> 13
 0.000000e+00 1.000000e+00 0.000000e+00 0.000000e+00 0.000000e+00 0.000000e+00 0.000000e+00 0.000000e+00 0.000000e+00 0.000000e+00 0.000000e+00 0.000000e+00 0.000000e+00
 0.000000e+00 6.584653e-01 3.415347e-01 0.000000e+00 0.000000e+00 0.000000e+00 0.000000e+00 0.000000e+00 0.000000e+00 0.000000e+00 0.000000e+00 0.000000e+00 0.000000e+00
 0.000000e+00 0.000000e+00 6.266754e-01 3.399244e-01 3.340030e-02 0.000000e+00 0.000000e+00 0.000000e+00 0.000000e+00 0.000000e+00 0.000000e+00 0.000000e+00 0.000000e+00
 0.000000e+00 0.000000e+00 0.000000e+00 7.261773e-01 1.186006e-01 1.552221e-01 0.000000e+00 0.000000e+00 0.000000e+00 0.000000e+00 0.000000e+00 0.000000e+00 0.000000e+00
 0.000000e+00 0.000000e+00 0.000000e+00 0.000000e+00 8.940124e-01 1.013082e-01 4.679470e-03 0.000000e+00 0.000000e+00 0.000000e+00 0.000000e+00 0.000000e+00 0.000000e+00
 0.000000e+00 0.000000e+00 0.000000e+00 0.000000e+00 0.000000e+00 7.266036e-01 2.733964e-01 0.000000e+00 0.000000e+00 0.000000e+00 0.000000e+00 0.000000e+00 0.000000e+00
 0.000000e+00 0.000000e+00 0.000000e+00 0.000000e+00 0.000000e+00 0.000000e+00 4.394581e-01 5.605419e-01 0.000000e+00 0.000000e+00 0.000000e+00 0.000000e+00 0.000000e+00
 0.000000e+00 0.000000e+00 0.000000e+00 0.000000e+00 0.000000e+00 0.000000e+00 0.000000e+00 3.219900e-01 6.780100e-01 0.000000e+00 0.000000e+00 0.000000e+00 0.000000e+00
 0.000000e+00 0.000000e+00 0.000000e+00 0.000000e+00 0.000000e+00 0.000000e+00 0.000000e+00 0.000000e+00 3.522955e-01 6.006059e-02 5.876439e-01 0.000000e+00 0.000000e+00
 0.000000e+00 0.000000e+00 0.000000e+00 0.000000e+00 0.000000e+00 0.000000e+00 0.000000e+00 0.000000e+00 0.000000e+00 5.953843e-01 4.046158e-01 0.000000e+00 0.000000e+00
 0.000000e+00 0.000000e+00 0.000000e+00 0.000000e+00 0.000000e+00 0.000000e+00 0.000000e+00 0.000000e+00 0.000000e+00 0.000000e+00 2.712355e-01 7.287645e-01 0.000000e+00
 0.000000e+00 0.000000e+00 0.000000e+00 0.000000e+00 0.000000e+00 0.000000e+00 0.000000e+00 0.000000e+00 0.000000e+00 0.000000e+00 0.000000e+00 1.534958e-01 8.465042e-01
 0.000000e+00 0.000000e+00 0.000000e+00 0.000000e+00 0.000000e+00 0.000000e+00 0.000000e+00 0.000000e+00 0.000000e+00 0.000000e+00 0.000000e+00 0.000000e+00 0.000000e+00
<ENDHMM>
~h "#u"
<BEGINHMM>
<NUMSTATES> 13
<STATE> 2
<NUMMIXES> 6
<MIXTURE> 1 1.309979e-01
<MEAN> 39
 6.165495e+00 -6.294991e+00 -5.924322e+00 4.235615e+00 -2.449964e+00 -1.101322e+01 -2.344338e+00 6.441154e+00 3.017088e-01 -4.353275e+00 -4.455690e+00 6.307529e-02 8.830577e-01 1.721978e+00 6.845191e-01 -1.903128e+00 -2.112716e-02 2.810817e+00 3.953288e-01 -2.939600e+00 -3.308457e-01 2.310394e+00 1.074855e+00 -8.724499e-01 -8.865294e-01 -9.372964e-03 -1.893074e-01 3.842004e-01 4.033221e-01 -9.717289e-01 -4.864699e-02 1.280154e+00 1.300970e-01 -1.280703e+00 -1.733018e-01 9.170957e-01 3.070073e-01 -4.452904e-01 -4.590854e-05
<VARIANCE> 39
 1.317062e+01 2.551196e+01 2.001024e+01 1.535459e+01 2.310515e+01 3.255058e+01 3.657488e+01 4.567911e+01 3.035093e+01 3.826659e+01 3.748191e+01 4.323244e+01 4.990576e-03 4.079300e-01 7.427136e-01 1.567438e+00 1.497739e+00 2.708043e+00 2.362909e+00 2.506557e+00 3.089081e+00 2.520161e+00 2.666295e+00 2.112314e+00 2.857794e+00 1.175958e-04 7.169661e-02 1.599240e-01 1.918796e-01 4.770213e-01 3.278315e-01 4.143117e-01 5.351443e-01 5.362182e-01 4.651845e-01 3.821861e-01 4.005870e-01 4.520658e-01 1.215960e-05
<GCONST> 7.977270e+01
<MIXTURE> 2 1.309232e-01
<MEAN> 39
 8.238327e+00 -4.502278e+00 -9.804534e+00 1.404298e+00 3.712965e+00 -5.863481e+00 -5.571581e+00 1.595890e+00 3.785473e+00 1.808070e+00 -4.782864e+00 -3.983149e+00 8.675247e-01 1.181642e+00 1.126046e+00 -8.001605e-01 -1.221561e+00 1.038220e+00 1.838622e+00 -7.086817e-01 -2.051433e+00 2.910139e-01 2.168046e+00 9.247669e-01 -8.268030e-01 -9.004325e-03 -2.024892e-01 2.862225e-02 4.809666e-01 -2.398774e-01 -6.512822e-01 2.955894e-01 7.793231e-01 -1.894355e-01 -8.772016e-01 -1.828496e-01 5.777290e-01 3.822188e-01 1.987992e-05
<VARIANCE> 39
 1.400229e+01 2.531828e+01 2.822868e+01 2.200605e+01 2.538108e+01 4.023621e+01 3.434385e+01 3.814038e+01 3.368844e+01 3.700454e+01 4.327748e+01 3.590161e+01 6.627336e-03 4.130068e-01 6.978009e-01 1.165778e+00 1.655905e+00 2.883244e+00 2.539161e+00 2.561481e+00 2.635109e+00 2.568230e+00 2.287907e+00 2.921265e+00 2.559473e+00 1.474332e-04 6.265574e-02 1.055343e-01 2.212051e-01 3.074529e-01 3.574359e-01 4.686156e-01 5.444402e-01 4.992798e-01 3.934121e-01 4.916496e-01 4.621481e-01 3.925736e-01 1.799291e-05
<GCONST> 8.074894e+01
<MIXTURE> 3 2.922537e-01
<MEAN> 39
 1.097251e+01 2.035475e+00 -7.216608e+00 -4.203892e+00 2.221272e+00 -6.954633e-01 -1.659272e+00 -2.905084e-01 -3.243032e-01 4.081178e+00 1.906499e+00 -3.323299e-02 7.464983e-01 6.418830e-01 2.490839e-01 -8.235344e-01 -5.526940e-02 6.816731e-02 1.054393e-01 -1.305888e-01 -4.049517e-01 -4.130382e-01 3.745644e-01 4.483787e-01 9.748863e-02 3.945626e-02 -4.687249e-01 -1.490514e-01 3.498776e-01 2.384023e-01 -9.933797e-02 1.606248e-03 1.298922e-01 -5.620611e-02 -7.757209e-04 -2.988445e-01 -1.368958e-01 5.560530e-02 -1.291022e-02
<VARIANCE> 39
 2.540760e+01 3.065970e+01 2.867835e+01 2.660387e+01 2.685254e+01 3.182790e+01 3.629427e+01 2.724757e+01 3.256567e+01 2.626355e+01 2.952398e+01 3.155608e+01 1.569784e-02 8.988819e-01 1.037039e+00 1.767624e+00 1.620085e+00 1.855580e+00 2.053106e+00 2.239184e+00 2.745990e+00 2.357460e+00 2.258910e+00 2.562147e+00 3.043587e+00 1.043258e-03 2.586494e-01 1.803103e-01 3.978217e-01 3.582582e-01 2.806391e-01 4.161057e-01 4.379761e-01 4.180689e-01 4.574960e-01 3.267802e-01 4.426138e-01 5.456308e-01 4.282602e-04
<GCONST> 8.911459e+01
<MIXTURE> 4 1.813750e-01
<MEAN> 39
 2.630178e+00 -5.700274e+00 8.174393e-02 -2.263823e-01 -1.038124e+01 -7.202159e+00 3.793736e+00 1.391991e+00 -3.587598e+00 -5.731368e-01 -1.585566e+00 -1.782272e+00 8.921240e-01 1.938123e+00 -8.147750e-01 -2.224287e+00 2.844796e+00 1.400836e+00 -2.522599e+00 -4.468760e-01 2.090341e+00 1.521088e-01 -5.244951e-01 -3.221093e-02 -1.503647e-01 -8.232962e-03 7.532986e-02 6.338957e-01 -3.929864e-01 -6.002733e-01 1.209686e+00 2.096561e-01 -1.171540e+00 -1.782608e-01 7.411066e-01 3.014906e-02 -1.867295e-01 9.241720e-02 -5.348148e-04
<VARIANCE> 39
 1.592362e+01 2.538008e+01 3.102273e+01 3.131208e+01 2.836217e+01 4.563523e+01 5.112804e+01 5.359442e+01 2.977401e+01 4.551813e+01 4.694939e+01 5.273056e+01 6.231374e-03 6.415417e-01 1.561987e+00 1.484531e+00 3.156110e+00 4.029112e+00 2.345856e+00 5.656553e+00 3.128322e+00 3.879579e+00 2.535987e+00 2.484670e+00 3.862787e+00 1.583629e-04 9.043367e-02 2.376584e-01 3.513406e-01 5.814666e-01 5.733737e-01 1.171631e+00 5.691799e-01 1.122474e+00 5.800806e-01 6.350446e-01 4.666854e-01 5.192770e-01 1.782792e-05
<GCONST> 9.242538e+01
<MIXTURE> 5 1.309078e-01
<MEAN> 39
 8.238349e+00 -4.502077e+00 -9.803452e+00 1.404514e+00 3.712498e+00 -5.864875e+00 -5.571545e+00 1.596601e+00 3.785789e+00 1.807610e+00 -4.782325e+00 -3.982203e+00 8.675175e-01 1.181693e+00 1.125976e+00 -8.004240e-01 -1.221487e+00 1.038655e+00 1.838719e+00 -7.090683e-01 -2.051474e+00 2.912959e-01 2.167955e+00 9.244027e-01 -8.269368e-01 -9.003382e-03 -2.025207e-01 2.867208e-02 4.809763e-01 -2.400243e-01 -6.513386e-01 2.957914e-01 7.793370e-01 -1.896581e-01 -8.772025e-01 -1.827069e-01 5.777074e-01 3.820693e-01 2.025575e-05
<VARIANCE> 39
 1.400236e+01 2.531938e+01 2.822713e+01 2.200755e+01 2.538220e+01 4.023920e+01 3.434555e+01 3.814281e+01 3.369185e+01 3.700497e+01 4.328613e+01 3.591133e+01 6.628224e-03 4.130575e-01 6.978844e-01 1.165979e+00 1.655940e+00 2.883549e+00 2.539179e+00 2.561999e+00 2.635188e+00 2.568220e+00 2.288173e+00 2.921208e+00 2.559758e+00 1.474313e-04 6.266239e-02 1.055573e-01 2.212323e-01 3.075737e-01 3.574654e-01 4.687046e-01 5.444666e-01 4.993888e-01 3.934644e-01 4.916382e-01 4.621975e-01 3.926123e-01 1.799932e-05
<GCONST> 8.075298e+01
<MIXTURE> 6 1.335389e-01
<MEAN> 39
 1.039939e+01 1.254542e-01 -8.249628e+00 -5.336340e+00 -2.321497e+00 -1.822233e+00 -6.610083e-01 -1.211987e+00 -2.030829e+00 -7.021918e-01 -2.357965e+00 -2.452134e+00 8.622866e-01 -1.546261e-01 -7.943768e-01 -7.358930e-02 6.054628e-01 -3.139994e-01 -7.948327e-01 -4.857323e-01 -1.607811e-01 -4.308035e-01 -9.929206e-01 -1.372551e+00 -1.635427e+00 3.054674e-02 -3.364374e-01 1.441747e-01 5.636699e-01 2.926104e-01 3.871473e-01 3.657202e-01 9.363236e-02 2.289977e-01 3.726211e-01 4.450661e-01 4.548913e-01 2.702138e-01 -2.030626e-02
<VARIANCE> 39
 3.332970e+01 3.883615e+01 2.838372e+01 2.694287e+01 2.339855e+01 2.885783e+01 2.201984e+01 2.643560e+01 2.790059e+01 2.749315e+01 3.734137e+01 3.869267e+01 7.260079e-03 5.395302e-01 1.052719e+00 1.738262e+00 1.899662e+00 1.550288e+00 1.865471e+00 2.343830e+00 2.089001e+00 2.470433e+00 2.471287e+00 2.441603e+00 2.744793e+00 4.105824e-04 2.521054e-01 2.171082e-01 4.234639e-01 3.967948e-01 2.778354e-01 3.604438e-01 3.626017e-01 4.843805e-01 4.352211e-01 3.661212e-01 5.449740e-01 5.021325e-01 1.976207e-04
<GCONST> 8.615896e+01
<STATE> 3
<NUMMIXES> 6
<MIXTURE> 1 1.328890e-01
<MEAN> 39
 1.044534e+01 -3.414746e+00 -1.037408e+01 -3.160910e+00 -2.615798e+00 -4.271773e+00 -4.733044e+00 -5.240943e+00 -2.253908e+00 -2.775279e+00 -4.534908e+00 -8.667028e+00 8.829623e-01 4.332249e-01 2.260609e-01 2.253792e-01 4.195101e-01 4.517462e-01 4.655880e-01 4.722025e-02 1.522667e-01 5.321115e-01 8.168352e-01 3.404773e-01 -2.275919e-01 -3.070508e-03 8.093482e-02 2.131413e-01 2.565557e-01 2.086089e-01 3.935971e-01 4.681226e-01 4.079313e-01 3.657304e-01 2.755047e-01 3.164079e-01 4.611893e-01 5.917665e-01 -1.836696e-03
<VARIANCE> 39
 1.584323e+01 3.440152e+01 3.136609e+01 2.919731e+01 2.653593e+01 2.889908e+01 2.346641e+01 3.671773e+01 3.037836e+01 2.919267e+01 3.804686e+01 4.767661e+01 4.472422e-03 3.504980e-01 9.959626e-01 1.193532e+00 1.550722e+00 1.370129e+00 1.594026e+00 2.284486e+00 2.412128e+00 1.979835e+00 2.194211e+00 2.852905e+00 2.888750e+00 8.101375e-05 3.376009e-02 1.327230e-01 2.485370e-01 3.078196e-01 2.234551e-01 2.268490e-01 3.444725e-01 4.974020e-01 3.627107e-01 3.139087e-01 3.464713e-01 4.131580e-01 1.200983e-05
<GCONST> 7.511723e+01
<MIXTURE> 2 1.299697e-01
<MEAN> 39
 1.037983e+01 -2.103295e+00 -1.059931e+01 -6.217408e-01 4.366941e+00 -1.731239e+00 -4.080742e+00 -1.871853e+00 2.082995e+00 5.341197e+00 -1.202374e+00 -4.633428e+00 8.624913e-01 7.540641e-01 9.358516e-01 1.923689e-01 -6.741513e-01 -1.601533e-02 1.362719e+00 6.537831e-01 -8.099515e-01 -8.182484e-01 9.193159e-01 1.753385e+00 7.951932e-01 -1.028300e-02 -1.509716e-01 -1.182231e-01 1.765696e-01 8.772352e-02 -3.252661e-01 -2.481001e-01 2.911666e-01 3.763134e-01 -3.037717e-01 -5.907670e-01 -7.395732e-02 3.800145e-01 -2.870827e-04
<VARIANCE> 39
 1.484564e+01 2.294747e+01 2.718977e+01 2.107178e+01 2.315030e+01 2.877227e+01 2.195988e+01 2.630513e+01 2.976422e+01 2.418036e+01 2.902758e+01 2.986447e+01 4.790714e-03 2.395030e-01 5.051072e-01 8.676121e-01 1.276326e+00 1.249538e+00 1.471589e+00 1.839974e+00 1.941754e+00 2.021487e+00 1.624516e+00 1.709100e+00 1.927759e+00 1.026420e-04 4.062066e-02 7.748978e-02 1.207444e-01 1.829213e-01 2.306946e-01 2.813012e-01 2.815934e-01 3.198083e-01 2.821900e-01 3.053349e-01 3.391257e-01 2.849551e-01 9.949567e-06
<GCONST> 6.676885e+01
<MIXTURE> 3 2.932617e-01
<MEAN> 39
 1.169178e+01 7.267562e-01 -9.408115e+00 -2.867763e+00 3.381366e+00 5.622993e-01 -2.064181e+00 -2.815375e+00 -2.361410e+00 5.358164e+00 3.536313e+00 7.038032e-01 8.317637e-01 2.914105e-01 4.338198e-01 1.766413e-01 -1.055980e-01 -2.456263e-01 4.190351e-01 7.723884e-01 1.700504e-02 -5.112815e-01 -4.051282e-01 6.090927e-01 9.138580e-01 1.239592e-03 -9.933567e-02 -1.128805e-01 6.599569e-02 1.051054e-01 -1.210452e-01 -2.177396e-01 -6.856173e-02 2.229750e-01 2.326193e-01 -2.837732e-01 -3.988305e-01 -2.317781e-01 -2.401293e-03
<VARIANCE> 39
 1.641387e+01 2.589394e+01 2.466677e+01 1.919717e+01 2.374405e+01 2.167547e+01 2.687926e+01 2.646595e+01 3.095495e+01 2.285550e+01 3.000133e+01 3.385376e+01 7.662037e-03 3.302952e-01 6.488804e-01 1.051815e+00 1.164532e+00 1.022731e+00 1.304741e+00 1.446873e+00 1.649910e+00 1.847419e+00 1.663622e+00 1.589994e+00 1.915136e+00 3.506333e-04 6.036749e-02 9.008977e-02 1.687635e-01 1.962407e-01 1.614323e-01 2.379918e-01 2.708246e-01 3.643803e-01 3.023955e-01 2.744405e-01 2.961490e-01 3.230762e-01 4.549959e-05
<GCONST> 7.038496e+01
<MIXTURE> 4 1.176822e-01
<MEAN> 39
 1.173227e+01 -2.856617e+00 -9.317763e+00 -3.179810e+00 1.230167e+00 1.888128e+00 -1.396001e+00 -4.685142e+00 -2.939272e+00 -3.612344e-01 6.550055e-01 -2.464380e+00 8.853774e-01 5.063330e-02 -7.455681e-02 -4.724123e-01 -8.170289e-01 -8.111054e-01 -3.344066e-01 -3.304732e-01 -7.702541e-01 -1.013480e+00 -8.643214e-01 -7.135906e-01 -1.104982e+00 -2.527281e-03 -9.478462e-02 -1.172619e-01 -2.472360e-02 1.823399e-01 -6.617010e-02 -4.033594e-01 -2.079684e-01 1.762533e-01 2.405114e-01 -2.446693e-02 -2.869797e-01 -1.797229e-01 -1.526758e-03
<VARIANCE> 39
 1.146354e+01 2.835970e+01 1.645646e+01 2.297049e+01 2.634686e+01 3.522216e+01 3.056421e+01 3.555922e+01 4.233662e+01 4.641523e+01 4.677335e+01 7.670919e+01 3.878184e-03 3.156105e-01 7.201644e-01 9.393077e-01 1.360610e+00 1.528244e+00 1.425371e+00 2.275842e+00 1.877513e+00 1.703213e+00 1.993453e+00 2.208410e+00 3.525883e+00 9.838608e-05 3.281883e-02 1.006698e-01 1.713584e-01 2.819583e-01 2.595747e-01 2.763553e-01 4.384325e-01 5.344709e-01 4.058676e-01 4.162093e-01 3.622941e-01 5.015639e-01 8.414416e-06
<GCONST> 7.448174e+01
<MIXTURE> 5 1.299676e-01
<MEAN> 39
 1.037972e+01 -2.103273e+00 -1.059948e+01 -6.216924e-01 4.367034e+00 -1.731428e+00 -4.080594e+00 -1.871660e+00 2.083156e+00 5.341019e+00 -1.202576e+00 -4.633512e+00 8.624932e-01 7.540486e-01 9.358351e-01 1.923423e-01 -6.740884e-01 -1.600040e-02 1.362621e+00 6.536861e-01 -8.098990e-01 -8.181440e-01 9.193519e-01 1.753343e+00 7.951468e-01 -1.028275e-02 -1.509522e-01 -1.182139e-01 1.765580e-01 8.771358e-02 -3.252215e-01 -2.480491e-01 2.911370e-01 3.762742e-01 -3.037574e-01 -5.907113e-01 -7.393891e-02 3.800009e-01 -2.871272e-04
<VARIANCE> 39
 1.484567e+01 2.294768e+01 2.718990e+01 2.107231e+01 2.315054e+01 2.877241e+01 2.195878e+01 2.630476e+01 2.976435e+01 2.417967e+01 2.902711e+01 2.986363e+01 4.790504e-03 2.394926e-01 5.051078e-01 8.675756e-01 1.276267e+00 1.249444e+00 1.471444e+00 1.839879e+00 1.941681e+00 2.021296e+00 1.624442e+00 1.708998e+00 1.927750e+00 1.026334e-04 4.061863e-02 7.748629e-02 1.207365e-01 1.829118e-01 2.306687e-01 2.812740e-01 2.815692e-01 3.197854e-01 2.821792e-01 3.053092e-01 3.391113e-01 2.849424e-01 9.949085e-06
<GCONST> 6.676723e+01
<MIXTURE> 6 1.962271e-01
<MEAN> 39
 1.195162e+01 1.972187e-01 -7.616992e+00 -4.251816e+00 -1.894326e+00 -7.500201e-01 1.827397e-01 -1.995108e+00 -3.121387e+00 -2.259983e+00 -2.941982e+00 -4.115321e+00 8.303773e-01 1.520498e-01 7.161486e-02 2.860722e-01 2.761110e-01 -7.359421e-02 -2.966040e-02 -1.024044e-01 3.225676e-01 2.802038e-01 -1.783818e-01 -4.591983e-01 -6.575668e-01 -1.352350e-03 -1.324004e-02 -5.745950e-02 -1.845048e-02 1.714323e-01 2.246916e-01 5.552184e-02 -2.221750e-01 -6.010952e-02 2.609069e-01 3.908808e-01 2.814638e-01 1.186110e-01 -2.683384e-03
<VARIANCE> 39
 1.518022e+01 3.066028e+01 2.683938e+01 2.052294e+01 2.401997e+01 2.663637e+01 2.636250e+01 3.371139e+01 3.276208e+01 2.639890e+01 4.146557e+01 5.593437e+01 8.554033e-03 4.090753e-01 9.253036e-01 1.029869e+00 1.201650e+00 1.198474e+00 1.356801e+00 1.734824e+00 2.382371e+00 1.900362e+00 2.043150e+00 2.206978e+00 2.478091e+00 2.428872e-04 4.675836e-02 1.485178e-01 1.761061e-01 2.417420e-01 2.113752e-01 2.330091e-01 3.626066e-01 4.288227e-01 4.263448e-01 3.055542e-01 3.643717e-01 4.810061e-01 2.824318e-05
<GCONST> 7.575980e+01
<STATE> 4
<NUMMIXES> 6
<MIXTURE> 1 8.381549e-02
<MEAN> 39
 7.221668e+00 -9.279689e-01 -6.595433e+00 -2.485659e+00 -2.141711e+00 -1.834868e+00 -3.113476e+00 -2.573813e+00 -2.911890e+00 -1.177934e+00 -1.195253e+00 -5.298357e+00 8.585900e-01 2.089130e-01 2.228684e-01 2.268038e-01 2.691033e-01 4.473861e-01 3.505155e-01 1.531136e-01 2.682027e-01 3.394543e-01 3.726312e-01 3.315149e-01 3.077560e-01 -6.971327e-03 7.074307e-02 1.637838e-01 1.914553e-01 1.664096e-01 2.349715e-01 2.710989e-01 3.437935e-01 2.869424e-01 3.239941e-01 2.733942e-01 3.218673e-01 3.317504e-01 -1.431000e-03
<VARIANCE> 39
 2.957948e+01 9.058931e+00 2.566857e+01 1.489721e+01 1.333231e+01 1.585749e+01 1.358682e+01 2.080232e+01 2.284225e+01 2.169841e+01 1.705341e+01 2.222989e+01 1.108202e-02 1.361609e-01 2.783495e-01 5.612293e-01 6.142175e-01 6.700525e-01 8.975252e-01 1.039253e+00 1.224271e+00 1.395626e+00 1.141934e+00 1.259136e+00 1.368971e+00 9.950689e-05 2.884655e-02 4.319259e-02 8.453465e-02 1.283198e-01 1.006650e-01 1.538465e-01 1.499270e-01 2.256194e-01 2.123529e-01 1.780505e-01 1.862133e-01 2.003975e-01 4.306107e-06
<GCONST> 5.135851e+01
<MIXTURE> 2 1.510810e-01
<MEAN> 39
 1.252236e+01 2.276075e+00 -8.298225e+00 -1.506114e+00 3.776081e+00 1.577296e+00 -1.254920e+00 -3.512563e-01 -3.233951e-01 5.162774e+00 4.228030e+00 -3.712568e-01 7.923023e-01 2.567120e-01 3.652144e-01 1.756035e-01 9.730288e-03 5.510244e-02 4.306776e-01 3.182804e-01 -7.670742e-02 1.113879e-01 1.718608e-01 4.374130e-01 3.642897e-01 -9.369130e-03 -6.304800e-02 -5.937738e-02 1.280138e-02 2.638625e-02 -2.780187e-02 -6.861403e-02 -4.884425e-02 -3.251297e-03 6.754372e-02 -3.321517e-02 -1.791964e-01 -6.885687e-02 -4.229358e-04
<VARIANCE> 39
 7.547080e+00 2.398250e+01 1.752127e+01 1.953552e+01 1.974741e+01 1.617720e+01 1.616501e+01 2.559971e+01 2.715883e+01 2.478107e+01 2.194822e+01 2.494218e+01 6.766270e-03 1.355840e-01 3.233685e-01 4.374629e-01 6.074176e-01 5.224416e-01 7.825886e-01 8.530810e-01 1.017208e+00 1.052733e+00 1.153444e+00 1.034968e+00 1.047026e+00 5.492903e-05 1.342646e-02 4.468739e-02 6.203950e-02 9.336939e-02 8.779230e-02 1.315404e-01 1.395808e-01 1.915847e-01 1.572774e-01 1.784294e-01 1.957279e-01 1.713915e-01 5.769678e-06
<GCONST> 4.761742e+01
<MIXTURE> 3 2.751643e-01
<MEAN> 39
 1.111272e+01 4.434586e+00 -9.013444e+00 -4.401381e+00 1.668045e+00 4.636299e-01 9.758650e-01 -1.961347e+00 -1.782201e+00 2.846019e+00 2.589129e+00 2.539576e+00 8.305687e-01 6.060531e-02 1.249758e-01 1.360199e-01 -7.379214e-03 -3.694098e-02 1.113797e-01 1.220460e-01 -1.595048e-03 1.268427e-01 -4.469045e-03 -1.645654e-02 7.667013e-02 -4.736626e-03 -1.182180e-02 -7.795943e-02 3.124627e-02 3.188848e-02 2.052163e-02 2.224057e-02 -1.217275e-01 1.290449e-02 2.695284e-02 8.171420e-02 1.229131e-02 -1.428183e-01 -1.691065e-03
<VARIANCE> 39
 1.172260e+01 2.773370e+01 2.934539e+01 1.829755e+01 2.258983e+01 1.656676e+01 2.329848e+01 1.856801e+01 1.773835e+01 2.279017e+01 1.859678e+01 1.595245e+01 7.370159e-03 1.489161e-01 2.824349e-01 4.345830e-01 3.574096e-01 4.593077e-01 6.320320e-01 7.419561e-01 7.568809e-01 7.500957e-01 7.640490e-01 8.876120e-01 7.414456e-01 9.853899e-05 2.379941e-02 4.285357e-02 6.520613e-02 7.608308e-02 8.501282e-02 1.212275e-01 1.553926e-01 1.422577e-01 1.460183e-01 1.482847e-01 1.604264e-01 1.376088e-01 7.269518e-06
<GCONST> 4.542258e+01
<MIXTURE> 4 1.415567e-01
<MEAN> 39
 6.113460e+00 2.915308e-03 -2.303166e+00 -1.917057e-01 -1.378691e+00 1.727344e-02 -8.351963e-01 6.957312e-02 -4.146212e-01 3.433816e-01 5.344804e-02 -1.785679e+00 8.741358e-01 -5.725668e-02 1.773751e-02 -1.498013e-01 -1.305759e-01 -9.017573e-02 -9.004705e-03 -1.869094e-01 -1.076731e-01 -1.852159e-01 -1.057909e-01 7.545656e-02 -1.391314e-01 -4.686286e-03 -3.125314e-02 2.342488e-02 -1.534715e-01 -1.292690e-01 2.444031e-02 -9.118257e-02 -9.141547e-02 -1.441463e-01 -1.490618e-01 -4.589361e-02 -1.292845e-02 -3.940558e-02 -1.013549e-03
<VARIANCE> 39
 1.850674e+01 1.011595e+01 2.396236e+01 1.376038e+01 1.174185e+01 1.500315e+01 1.537893e+01 2.121660e+01 2.095825e+01 2.027633e+01 2.000941e+01 2.483604e+01 9.801522e-03 1.597776e-01 5.979503e-01 8.934116e-01 8.730470e-01 9.383501e-01 1.191831e+00 1.559517e+00 1.632019e+00 1.602526e+00 1.460163e+00 1.712091e+00 1.575354e+00 6.790795e-05 2.512450e-02 7.878030e-02 1.352288e-01 1.224830e-01 1.845551e-01 2.134459e-01 2.864237e-01 3.103287e-01 2.914602e-01 2.548470e-01 2.607544e-01 2.575990e-01 4.007781e-06
<GCONST> 5.828865e+01
<MIXTURE> 5 1.510812e-01
<MEAN> 39
 1.252238e+01 2.276069e+00 -8.298243e+00 -1.506083e+00 3.776114e+00 1.577308e+00 -1.254923e+00 -3.512739e-01 -3.233621e-01 5.162785e+00 4.228047e+00 -3.712623e-01 7.923021e-01 2.567112e-01 3.652122e-01 1.756025e-01 9.731729e-03 5.510138e-02 4.306762e-01 3.182767e-01 -7.671212e-02 1.113897e-01 1.718627e-01 4.374085e-01 3.642822e-01 -9.369147e-03 -6.304783e-02 -5.937733e-02 1.280178e-02 2.638675e-02 -2.780180e-02 -6.861466e-02 -4.884393e-02 -3.249940e-03 6.754290e-02 -3.321402e-02 -1.791959e-01 -6.885602e-02 -4.229343e-04
<VARIANCE> 39
 7.547053e+00 2.398257e+01 1.752120e+01 1.953558e+01 1.974727e+01 1.617721e+01 1.616506e+01 2.559979e+01 2.715894e+01 2.478094e+01 2.194828e+01 2.494227e+01 6.766262e-03 1.355841e-01 3.233667e-01 4.374614e-01 6.074172e-01 5.224403e-01 7.825909e-01 8.530800e-01 1.017204e+00 1.052731e+00 1.153438e+00 1.034966e+00 1.047021e+00 5.492876e-05 1.342648e-02 4.468706e-02 6.203926e-02 9.336885e-02 8.779200e-02 1.315406e-01 1.395806e-01 1.915839e-01 1.572766e-01 1.784272e-01 1.957276e-01 1.713912e-01 5.769630e-06
<GCONST> 4.761731e+01
<MIXTURE> 6 1.972954e-01
<MEAN> 39
 2.656657e+00 4.025033e-01 -3.122345e+00 -1.381053e-01 -6.800527e-01 -8.787980e-02 -3.869582e-02 -7.593575e-01 -4.018325e-01 -3.039175e-01 5.746285e-01 2.812554e-01 9.397277e-01 2.010076e-02 1.044590e-01 4.246926e-02 5.832594e-03 1.012566e-01 1.537221e-01 1.650323e-02 3.089187e-02 1.312030e-01 6.697948e-02 2.215713e-02 -5.213784e-03 -4.226653e-03 2.616960e-03 -1.045494e-02 4.204858e-03 -1.622165e-02 -1.220666e-03 1.614522e-04 -2.039710e-02 -7.534683e-03 -3.598011e-02 2.771373e-02 -2.946887e-02 -2.124441e-02 -6.709187e-04
<VARIANCE> 39
 4.122900e+00 7.016014e+00 1.033991e+01 6.690247e+00 6.019449e+00 8.032928e+00 1.012368e+01 7.740137e+00 1.130698e+01 1.116488e+01 9.138390e+00 1.199875e+01 2.575463e-03 1.066517e-01 2.511710e-01 3.420878e-01 3.655729e-01 4.850577e-01 5.438185e-01 6.788173e-01 6.720638e-01 7.378069e-01 6.948638e-01 6.700010e-01 6.894218e-01 4.008748e-05 1.535854e-02 3.693179e-02 6.014964e-02 5.900901e-02 7.724378e-02 9.009562e-02 1.041696e-01 9.053870e-02 1.147291e-01 1.116351e-01 1.322581e-01 1.017649e-01 3.816729e-06
<GCONST> 2.782204e+01
<STATE> 5
<NUMMIXES> 6
<MIXTURE> 1 5.436878e-02
<MEAN> 39
 1.197791e+01 -2.210145e+00 -7.710343e+00 -2.532767e+00 1.134067e+00 -5.828188e-01 -2.713905e+00 -2.561132e+00 -4.644513e-02 6.223820e-01 -5.062187e+00 -6.721518e+00 8.048344e-01 3.363789e-01 5.168633e-01 7.956691e-01 6.412176e-01 5.316963e-01 4.392479e-01 8.340087e-01 1.410600e+00 9.203418e-01 1.439006e-01 8.417992e-01 1.146319e+00 -1.301423e-02 -1.414008e-01 3.625200e-02 2.153722e-01 2.374088e-01 -7.345371e-02 -1.295916e-01 2.470994e-01 4.064239e-01 -3.039337e-02 -7.172853e-02 3.449801e-01 4.779300e-01 -1.151950e-03
<VARIANCE> 39
 1.761531e+01 3.145511e+01 2.253942e+01 1.544835e+01 2.791970e+01 5.777107e+01 1.735910e+01 2.550547e+01 2.112271e+01 2.862352e+01 4.163346e+01 4.628252e+01 1.183203e-02 4.209833e-01 7.487941e-01 8.199638e-01 1.959918e+00 1.962682e+00 1.033124e+00 1.847190e+00 1.399661e+00 1.950272e+00 2.444993e+00 1.681556e+00 3.222147e+00 1.488296e-04 7.511597e-02 1.435976e-01 1.336032e-01 1.832918e-01 3.966188e-01 3.802346e-01 2.844165e-01 4.566893e-01 3.977858e-01 4.148449e-01 3.653391e-01 5.015767e-01 2.090366e-05
<GCONST> 7.582719e+01
<MIXTURE> 2 1.700907e-01
<MEAN> 39
 1.295063e+01 4.119902e+00 -5.304929e+00 -9.130130e-01 2.480040e+00 4.216368e+00 2.348347e-01 -3.900394e-03 2.267769e+00 4.144982e+00 5.079644e+00 1.339712e+00 6.785744e-01 -5.797239e-02 2.652812e-01 5.584285e-01 2.488420e-02 1.677853e-01 3.457263e-01 1.744159e-01 2.376745e-01 -3.487291e-03 1.045445e-01 7.815754e-02 1.115608e-01 -1.644632e-02 -1.057713e-01 -3.793342e-02 4.535079e-02 -4.139001e-02 4.327223e-02 -1.347971e-01 -1.665705e-02 -1.047052e-02 -9.637061e-02 -8.731662e-02 -1.689633e-01 -1.027971e-01 2.539765e-04
<VARIANCE> 39
 1.271049e+01 2.736183e+01 2.495349e+01 1.700321e+01 1.907129e+01 1.807818e+01 2.206571e+01 2.203162e+01 2.058942e+01 2.437165e+01 2.449521e+01 2.682770e+01 1.006221e-02 2.385739e-01 5.236912e-01 9.094265e-01 8.346422e-01 9.532696e-01 1.088905e+00 1.250866e+00 1.242917e+00 1.440932e+00 1.448932e+00 1.429237e+00 1.338776e+00 1.649270e-04 4.637987e-02 8.523215e-02 1.538071e-01 1.486635e-01 1.597809e-01 2.006630e-01 2.503941e-01 2.577381e-01 2.463537e-01 2.650053e-01 2.566134e-01 2.510396e-01 2.097148e-05
<GCONST> 6.277807e+01
<MIXTURE> 3 3.169340e-01
<MEAN> 39
 1.345164e+01 4.585427e+00 -8.242084e+00 -3.526981e+00 9.600528e-01 2.746075e+00 9.743775e-01 -6.729981e-02 -2.754835e+00 3.315822e+00 3.947244e+00 3.227171e+00 7.641631e-01 -3.226048e-02 -7.382504e-02 1.766970e-01 2.952427e-01 4.192237e-01 2.393892e-01 -2.391657e-01 -1.200589e-01 6.030940e-01 4.968335e-01 1.702512e-01 -2.136385e-01 -1.085594e-02 -1.193851e-01 -1.993648e-01 7.028409e-02 2.159353e-01 1.861369e-01 -1.335013e-01 -3.640863e-01 -4.341363e-02 3.715689e-01 1.869268e-01 -1.840655e-01 -3.150875e-01 -1.697371e-03
<VARIANCE> 39
